{"learner":{"attributes":{"scikit_learn":"{\"_estimator_type\": \"regressor\"}"},"feature_names":[],"feature_types":[],"gradient_booster":{"model":{"cats":{"enc":[],"feature_segments":[],"sorted_idx":[]},"gbtree_model_param":{"num_parallel_tree":"1","num_trees":"500"},"iteration_indptr":[0,1,2,3,4,5,6,7,8,9,10,11,12,13,14,15,16,17,18,19,20,21,22,23,24,25,26,27,28,29,30,31,32,33,34,35,36,37,38,39,40,41,42,43,44,45,46,47,48,49,50,51,52,53,54,55,56,57,58,59,60,61,62,63,64,65,66,67,68,69,70,71,72,73,74,75,76,77,78,79,80,81,82,83,84,85,86,87,88,89,90,91,92,93,94,95,96,97,98,99,100,101,102,103,104,105,106,107,108,109,110,111,112,113,114,115,116,117,118,119,120,121,122,123,124,125,126,127,128,129,130,131,132,133,134,135,136,137,138,139,140,141,142,143,144,145,146,147,148,149,150,151,152,153,154,155,156,157,158,159,160,161,162,163,164,165,166,167,168,169,170,171,172,173,174,175,176,177,178,179,180,181,182,183,184,185,186,187,188,189,190,191,192,193,194,195,196,197,198,199,200,201,202,203,204,205,206,207,208,209,210,211,212,213,214,215,216,217,218,219,220,221,222,223,224,225,226,227,228,229,230,231,232,233,234,235,236,237,238,239,240,241,242,243,244,245,246,247,248,249,250,251,252,253,254,255,256,257,258,259,260,261,262,263,264,265,266,267,268,269,270,271,272,273,274,275,276,277,278,279,280,281,282,283,284,285,286,287,288,289,290,291,292,293,294,295,296,297,298,299,300,301,302,303,304,305,306,307,308,309,310,311,312,313,314,315,316,317,318,319,320,321,322,323,324,325,326,327,328,329,330,331,332,333,334,335,336,337,338,339,340,341,342,343,344,345,346,347,348,349,350,351,352,353,354,355,356,357,358,359,360,361,362,363,364,365,366,367,368,369,370,371,372,373,374,375,376,377,378,379,380,381,382,383,384,385,386,387,388,389,390,391,392,393,394,395,396,397,398,399,400,401,402,403,404,405,406,407,408,409,410,411,412,413,414,415,416,417,418,419,420,421,422,423,424,425,426,427,428,429,430,431,432,433,434,435,436,437,438,439,440,441,442,443,444,445,446,447,448,449,450,451,452,453,454,455,456,457,458,459,460,461,462,463,464,465,466,467,468,469,470,471,472,473,474,475,476,477,478,479,480,481,482,483,484,485,486,487,488,489,490,491,492,493,494,495,496,497,498,499,500],"tree_info":[0,0,0,0,0,0,0,0,0,0,0,0,0,0,0,0,0,0,0,0,0,0,0,0,0,0,0,0,0,0,0,0,0,0,0,0,0,0,0,0,0,0,0,0,0,0,0,0,0,0,0,0,0,0,0,0,0,0,0,0,0,0,0,0,0,0,0,0,0,0,0,0,0,0,0,0,0,0,0,0,0,0,0,0,0,0,0,0,0,0,0,0,0,0,0,0,0,0,0,0,0,0,0,0,0,0,0,0,0,0,0,0,0,0,0,0,0,0,0,0,0,0,0,0,0,0,0,0,0,0,0,0,0,0,0,0,0,0,0,0,0,0,0,0,0,0,0,0,0,0,0,0,0,0,0,0,0,0,0,0,0,0,0,0,0,0,0,0,0,0,0,0,0,0,0,0,0,0,0,0,0,0,0,0,0,0,0,0,0,0,0,0,0,0,0,0,0,0,0,0,0,0,0,0,0,0,0,0,0,0,0,0,0,0,0,0,0,0,0,0,0,0,0,0,0,0,0,0,0,0,0,0,0,0,0,0,0,0,0,0,0,0,0,0,0,0,0,0,0,0,0,0,0,0,0,0,0,0,0,0,0,0,0,0,0,0,0,0,0,0,0,0,0,0,0,0,0,0,0,0,0,0,0,0,0,0,0,0,0,0,0,0,0,0,0,0,0,0,0,0,0,0,0,0,0,0,0,0,0,0,0,0,0,0,0,0,0,0,0,0,0,0,0,0,0,0,0,0,0,0,0,0,0,0,0,0,0,0,0,0,0,0,0,0,0,0,0,0,0,0,0,0,0,0,0,0,0,0,0,0,0,0,0,0,0,0,0,0,0,0,0,0,0,0,0,0,0,0,0,0,0,0,0,0,0,0,0,0,0,0,0,0,0,0,0,0,0,0,0,0,0,0,0,0,0,0,0,0,0,0,0,0,0,0,0,0,0,0,0,0,0,0,0,0,0,0,0,0,0,0,0,0,0,0,0,0,0,0,0,0,0,0,0,0,0,0,0,0,0,0,0,0,0,0,0,0,0,0,0,0,0,0,0,0,0,0,0,0,0,0,0,0,0,0,0,0,0,0,0,0,0,0,0,0,0,0,0,0,0,0,0,0,0,0,0,0,0,0,0,0],"trees":[{"base_weights":[-2.1686242E-3,-1.4869702E-1,6.0509425E-1,-4.4563946E-1,6.768748E-2,1.5227512E-1,7.195168E-1,-5.8849424E-1,-2.0551145E-1,-1.415498E-1,1.9241679E-1,1.6299658E-2,3.561584E-1,5.8372396E-1,1.0460414E0,-6.9891804E-1,-4.8780653E-1,-3.1437802E-1,-9.234846E-2,-7.581221E-2,-3.15208E-1,2.6621035E-1,-1.6078457E-3,-8.17711E-2,2.1133077E-1,2.985603E-1,7.07541E-1,4.9522492E-1,7.384952E-1,1.2857254E0,8.622855E-1,-2.9705378E-1,-7.172244E-1,-5.189772E-1,-2.4059832E-1,-3.697526E-1,-1.0247463E-1,-2.1761596E-1,2.446938E-2,-2.961269E-1,-1.602448E-2,-4.3264374E-1,-2.631002E-1,1.870844E-1,4.4420955E-1,-1.00371115E-1,1.1089266E-1,-1.3539746E-1,2.8261408E-2,1.5859595E-1,7.44495E-1,2.0837148E-1,4.005062E-1,4.2202047E-1,8.953051E-1,4.4875515E-1,7.2552514E-1,9.551209E-1,5.855012E-1,1.1282107E0,1.575113E0,7.39193E-1,1.0478519E0,-1.723465E-2,-2.891896E-3,-4.0239144E-2,-3.1697866E-2,-2.694057E-2,-1.1983271E-2,-5.0605345E-4,-1.460611E-2,-2.1188324E-2,-1.3532422E-2,-1.0963417E-2,-3.1487722E-4,-1.3370528E-2,-3.9054805E-3,-2.0377648E-4,2.1161212E-2,-6.3827946E-3,-1.7919501E-2,-8.049969E-3,1.4685063E-3,-2.5533516E-2,-1.8403754E-2,-1.7284432E-2,-1.1436398E-2,2.270929E-3,1.1677458E-2,2.5436599E-2,1.6056795E-2,-6.4827777E-3,2.1704268E-3,2.4591797E-4,9.210713E-3,-9.810987E-3,-2.40608E-3,-6.431373E-4,8.135942E-3,-1.1324349E-2,1.0076445E-2,4.3121576E-3,4.0799804E-2,6.3984E-3,1.9485926E-2,1.4551245E-2,2.4422202E-2,-2.4294138E-3,2.3264345E-2,4.6323497E-2,1.0695815E-2,2.0299349E-2,3.0913606E-2,3.2468688E-2,4.842382E-2,4.9998354E-2,2.4980856E-2,3.2226082E-2,2.5751863E-2,5.9567373E-2,3.147612E-2,7.133966E-2,9.183436E-2,3.4203455E-2,4.6612132E-2,4.1868567E-2,5.60507E-2],"categories":[],"categories_nodes":[],"categories_segments":[],"categories_sizes":[],"default_left":[0,0,0,0,0,0,0,0,0,0,0,0,0,0,0,0,0,0,0,0,0,0,0,0,0,0,0,0,0,0,0,0,0,0,0,0,0,0,0,0,0,0,0,0,0,0,0,0,0,0,0,0,0,0,0,0,0,0,0,0,0,0,0,0,0,0,0,0,0,0,0,0,0,0,0,0,0,0,0,0,0,0,0,0,0,0,0,0,0,0,0,0,0,0,0,0,0,0,0,0,0,0,0,0,0,0,0,0,0,0,0,0,0,0,0,0,0,0,0,0,0,0,0,0,0,0,0],"id":0,"left_children":[1,3,5,7,9,11,13,15,17,19,21,23,25,27,29,31,33,35,37,39,41,43,45,47,49,51,53,55,57,59,61,63,65,67,69,71,73,75,77,79,81,83,85,87,89,91,93,95,97,99,101,103,105,107,109,111,113,115,117,119,121,123,125,-1,-1,-1,-1,-1,-1,-1,-1,-1,-1,-1,-1,-1,-1,-1,-1,-1,-1,-1,-1,-1,-1,-1,-1,-1,-1,-1,-1,-1,-1,-1,-1,-1,-1,-1,-1,-1,-1,-1,-1,-1,-1,-1,-1,-1,-1,-1,-1,-1,-1,-1,-1,-1,-1,-1,-1,-1,-1,-1,-1,-1,-1,-1,-1],"loss_changes":[1.1544437E3,6.716103E2,1.3056207E2,1.5101996E2,1.5784195E2,1.413299E1,8.864526E1,3.0367859E1,2.0236816E1,2.5764565E1,5.4250458E1,5.8892236E0,3.9175072E0,1.9138977E1,2.4876953E1,9.4609375E0,1.1032928E1,9.795258E0,1.1829176E1,2.1597527E1,3.6801376E0,3.857843E1,1.1622039E1,1.2134585E0,2.777907E0,1.543953E0,1.1232567E0,9.402527E0,1.6542267E1,9.800964E0,6.923111E0,6.524315E-1,8.654297E0,6.989685E0,1.9445562E0,3.4396973E0,1.9643728E0,2.6883106E0,4.7709594E0,3.6255836E0,8.500901E0,7.6423264E-1,1.1472702E0,1.2509247E1,6.538849E0,2.3508797E0,3.7987242E0,7.231052E-1,3.7809548E-1,1.6162543E0,3.532176E-1,1.3498979E0,6.473093E-1,2.873075E-1,1.4157963E-1,5.2516937E0,2.1647644E0,3.8310547E0,9.364929E-1,4.5395966E0,7.547455E-1,1.5544662E0,1.0939789E0,0E0,0E0,0E0,0E0,0E0,0E0,0E0,0E0,0E0,0E0,0E0,0E0,0E0,0E0,0E0,0E0,0E0,0E0,0E0,0E0,0E0,0E0,0E0,0E0,0E0,0E0,0E0,0E0,0E0,0E0,0E0,0E0,0E0,0E0,0E0,0E0,0E0,0E0,0E0,0E0,0E0,0E0,0E0,0E0,0E0,0E0,0E0,0E0,0E0,0E0,0E0,0E0,0E0,0E0,0E0,0E0,0E0,0E0,0E0,0E0,0E0,0E0,0E0,0E0],"parents":[2147483647,0,0,1,1,2,2,3,3,4,4,5,5,6,6,7,7,8,8,9,9,10,10,11,11,12,12,13,13,14,14,15,15,16,16,17,17,18,18,19,19,20,20,21,21,22,22,23,23,24,24,25,25,26,26,27,27,28,28,29,29,30,30,31,31,32,32,33,33,34,34,35,35,36,36,37,37,38,38,39,39,40,40,41,41,42,42,43,43,44,44,45,45,46,46,47,47,48,48,49,49,50,50,51,51,52,52,53,53,54,54,55,55,56,56,57,57,58,58,59,59,60,60,61,61,62,62],"right_children":[2,4,6,8,10,12,14,16,18,20,22,24,26,28,30,32,34,36,38,40,42,44,46,48,50,52,54,56,58,60,62,64,66,68,70,72,74,76,78,80,82,84,86,88,90,92,94,96,98,100,102,104,106,108,110,112,114,116,118,120,122,124,126,-1,-1,-1,-1,-1,-1,-1,-1,-1,-1,-1,-1,-1,-1,-1,-1,-1,-1,-1,-1,-1,-1,-1,-1,-1,-1,-1,-1,-1,-1,-1,-1,-1,-1,-1,-1,-1,-1,-1,-1,-1,-1,-1,-1,-1,-1,-1,-1,-1,-1,-1,-1,-1,-1,-1,-1,-1,-1,-1,-1,-1,-1,-1,-1],"split_conditions":[1.1502589E0,-1.8937376E-1,-2.826262E-1,-1.4689802E-1,-5.9893966E-1,1.2202523E0,1.7163955E0,-7.312445E-1,-9.925015E-1,1.0301371E0,1.0771247E0,-8.9997196E-1,2.8582332E0,1.0658966E0,1.9269888E-1,-1.1707165E0,-3.6358958E-1,3.4031556E-3,2.9627162E-1,4.7010373E-2,-1.073032E0,3.051436E-1,2.9627162E-1,-3.0002559E-2,4.9354267E0,-1.0980431E0,-9.25273E-1,1.0037102E0,1.9269888E-1,2.8582332E0,2.8582332E0,2.3142824E0,-1.0399559E0,3.729265E-1,-1.1064718E0,4.3533805E-1,2.2796577E-1,3.0335462E-1,3.6248546E0,-1.1564399E0,-1.1502099E0,-5.5771565E-1,-9.284908E-1,9.7612485E-2,4.925075E-1,2.830928E-1,6.258468E-2,1.0072663E0,3.6025637E-1,9.56609E-2,-1.4764005E-1,7.59964E-1,-1.1368426E-1,1.4628111E0,1.8436705E0,9.088929E-1,2.004246E0,1.062667E0,1.1064013E0,1.004836E0,3.4032824E0,2.3142824E0,2.3117673E0,-1.723465E-2,-2.891896E-3,-4.0239144E-2,-3.1697866E-2,-2.694057E-2,-1.1983271E-2,-5.0605345E-4,-1.460611E-2,-2.1188324E-2,-1.3532422E-2,-1.0963417E-2,-3.1487722E-4,-1.3370528E-2,-3.9054805E-3,-2.0377648E-4,2.1161212E-2,-6.3827946E-3,-1.7919501E-2,-8.049969E-3,1.4685063E-3,-2.5533516E-2,-1.8403754E-2,-1.7284432E-2,-1.1436398E-2,2.270929E-3,1.1677458E-2,2.5436599E-2,1.6056795E-2,-6.4827777E-3,2.1704268E-3,2.4591797E-4,9.210713E-3,-9.810987E-3,-2.40608E-3,-6.431373E-4,8.135942E-3,-1.1324349E-2,1.0076445E-2,4.3121576E-3,4.0799804E-2,6.3984E-3,1.9485926E-2,1.4551245E-2,2.4422202E-2,-2.4294138E-3,2.3264345E-2,4.6323497E-2,1.0695815E-2,2.0299349E-2,3.0913606E-2,3.2468688E-2,4.842382E-2,4.9998354E-2,2.4980856E-2,3.2226082E-2,2.5751863E-2,5.9567373E-2,3.147612E-2,7.133966E-2,9.183436E-2,3.4203455E-2,4.6612132E-2,4.1868567E-2,5.60507E-2],"split_indices":[6,11,11,2,2,2,2,2,11,11,11,11,6,2,12,12,11,3,6,11,2,2,6,3,8,11,11,8,12,6,6,8,2,3,12,9,2,9,8,12,2,6,9,11,12,2,2,9,14,2,1,3,3,2,4,5,6,11,12,11,2,8,2,0,0,0,0,0,0,0,0,0,0,0,0,0,0,0,0,0,0,0,0,0,0,0,0,0,0,0,0,0,0,0,0,0,0,0,0,0,0,0,0,0,0,0,0,0,0,0,0,0,0,0,0,0,0,0,0,0,0,0,0,0,0,0,0],"split_type":[0,0,0,0,0,0,0,0,0,0,0,0,0,0,0,0,0,0,0,0,0,0,0,0,0,0,0,0,0,0,0,0,0,0,0,0,0,0,0,0,0,0,0,0,0,0,0,0,0,0,0,0,0,0,0,0,0,0,0,0,0,0,0,0,0,0,0,0,0,0,0,0,0,0,0,0,0,0,0,0,0,0,0,0,0,0,0,0,0,0,0,0,0,0,0,0,0,0,0,0,0,0,0,0,0,0,0,0,0,0,0,0,0,0,0,0,0,0,0,0,0,0,0,0,0,0,0],"sum_hessian":[1.2972E4,1.0451E4,2.521E3,4.405E3,6.046E3,5.09E2,2.012E3,2.761E3,1.644E3,2.258E3,3.788E3,3.06E2,2.03E2,1.423E3,5.89E2,1.314E3,1.447E3,8.37E2,8.07E2,1.639E3,6.19E2,2.744E3,1.044E3,2.04E2,1.02E2,1.76E2,2.7E1,9.08E2,5.15E2,2.53E2,3.36E2,5.8E1,1.256E3,1.284E3,1.63E2,6.63E2,1.74E2,3.89E2,4.18E2,3.49E2,1.29E3,1.88E2,4.31E2,1.901E3,8.43E2,5.56E2,4.88E2,1.37E2,6.7E1,9.4E1,8E0,9.5E1,8.1E1,1.2E1,1.5E1,7.58E2,1.5E2,2.11E2,3.04E2,1.67E2,8.6E1,2.05E2,1.31E2,4.8E1,1E1,6.08E2,6.48E2,1.198E3,8.6E1,3E1,1.33E2,4.27E2,2.36E2,7.8E1,9.6E1,2.86E2,1.03E2,3.91E2,2.7E1,9.5E1,2.54E2,3.07E2,9.83E2,8.2E1,1.06E2,1.24E2,3.07E2,4.7E2,1.431E3,5.51E2,2.92E2,4.62E2,9.4E1,2E2,2.88E2,8E1,5.7E1,5.2E1,1.5E1,9E0,8.5E1,1E0,7E0,6.7E1,2.8E1,3.8E1,4.3E1,1E0,1.1E1,1.4E1,1E0,6.08E2,1.5E2,1.17E2,3.3E1,1.91E2,2E1,1.61E2,1.43E2,1.47E2,2E1,5.9E1,2.7E1,1.63E2,4.2E1,3.7E1,9.4E1],"tree_param":{"num_deleted":"0","num_feature":"15","num_nodes":"127","size_leaf_vector":"1"}},{"base_weights":[8.491698E-4,-1.8080136E-1,4.727989E-1,-3.7769893E-1,-5.7530332E-2,3.1865308E-1,8.3908343E-1,-2.2798736E-1,-4.712839E-1,-1.4493665E-1,5.2073587E-2,2.0890053E-1,4.204377E-1,7.028221E-1,1.1040186E0,-1.5316185E-1,-5.1733524E-1,-5.719994E-1,-3.7238607E-1,-1.8198342E-3,-2.128212E-1,2.790168E-2,2.9863188E-1,1.7018493E-1,4.290515E-1,5.722678E-1,3.402726E-1,9.012227E-1,5.7381934E-1,1.3394237E0,9.109282E-1,-3.3351213E-1,-9.642105E-2,-6.8480086E-1,-3.792665E-1,-7.8658813E-1,-5.214328E-1,-4.2204002E-1,-2.3426545E-1,1.3326319E-1,-2.4430898E-1,-2.6825264E-1,-8.1473514E-2,1.1519442E-2,2.3543845E-1,2.783313E-1,7.639427E-1,3.7356818E-1,1.5017986E-1,3.716821E-1,9.046776E-1,4.8708698E-1,7.4053186E-1,2.5896347E-1,4.234507E-1,7.447614E-1,1.0102985E0,5.535938E-1,9.853854E-1,1.1645639E0,7.7505246E-2,8.213955E-1,5.522076E-2,-2.8690714E-2,-1.4219119E-2,-6.5492117E-3,4.3162955E-3,-2.5245463E-2,-3.8339194E-2,-4.343196E-3,-2.002061E-2,-1.8442543E-2,-4.05141E-2,-1.4945765E-2,-2.6940435E-2,-2.1613482E-2,-2.2827003E-3,-2.163003E-2,-9.143959E-3,2.8526005E-3,1.0604831E-2,-1.5495934E-2,-5.5559687E-3,2.7148618E-4,-1.4028043E-2,-5.6033893E-3,4.79648E-3,-1.163744E-4,1.3407262E-2,1.0017483E-2,1.9079726E-2,1.5007781E-2,-2.0699757E-3,7.16095E-3,4.1181542E-2,2.3314627E-2,9.112035E-3,6.813681E-3,1.87503E-2,1.62838E-2,3.2078005E-2,3.32252E-2,5.4885175E-2,3.2280285E-2,1.6057169E-2,2.9606897E-2,4.1463062E-2,1.266429E-2,4.079635E-2,2.0541187E-2,3.4377005E-2,4.4909846E-2,2.2286534E-2,4.691657E-2,5.8244634E-2,1.1731002E-2,2.8166264E-2,5.4311883E-2,2.4287578E-2,-6.484985E-5,5.886949E-2,7.3232176E-3,4.1257177E-2],"categories":[],"categories_nodes":[],"categories_segments":[],"categories_sizes":[],"default_left":[0,0,0,0,0,0,0,0,0,0,0,0,0,0,0,0,0,0,0,0,0,0,0,0,0,0,0,0,0,0,0,0,0,0,0,0,0,0,0,0,0,0,0,0,0,0,0,0,0,0,0,0,0,0,0,0,0,0,0,0,0,0,0,0,0,0,0,0,0,0,0,0,0,0,0,0,0,0,0,0,0,0,0,0,0,0,0,0,0,0,0,0,0,0,0,0,0,0,0,0,0,0,0,0,0,0,0,0,0,0,0,0,0,0,0,0,0,0,0,0,0,0,0],"id":1,"left_children":[1,3,5,7,9,11,13,15,17,19,21,23,25,27,29,31,33,35,37,39,41,43,45,47,49,51,53,55,57,59,61,63,65,67,69,71,73,75,77,79,81,83,85,87,89,91,93,95,97,99,101,103,105,107,109,111,113,115,117,119,-1,121,-1,-1,-1,-1,-1,-1,-1,-1,-1,-1,-1,-1,-1,-1,-1,-1,-1,-1,-1,-1,-1,-1,-1,-1,-1,-1,-1,-1,-1,-1,-1,-1,-1,-1,-1,-1,-1,-1,-1,-1,-1,-1,-1,-1,-1,-1,-1,-1,-1,-1,-1,-1,-1,-1,-1,-1,-1,-1,-1,-1,-1],"loss_changes":[1.1160319E3,2.2813287E2,2.0400928E2,5.0597412E1,5.5399544E1,2.837619E1,3.7887634E1,3.0101707E1,2.1959167E1,3.125412E1,1.5284473E1,1.039357E1,1.5883774E1,1.7654724E1,1.5234375E1,1.1316483E1,6.3531036E0,1.1536804E1,7.6235046E0,3.3967945E1,1.5864838E1,7.946293E0,1.9505234E0,4.199753E0,4.657154E0,6.1607513E0,5.753975E0,3.9919586E0,3.058838E0,4.126007E0,2.592163E0,2.9654045E0,5.3485928E0,1.5005989E0,9.483223E-1,1.7598724E0,3.2955322E0,3.1644592E0,2.9783993E0,3.9892216E0,3.2075558E0,5.1688766E0,3.5332098E0,7.704568E0,8.005104E-1,1.5545425E0,2.1548891E-1,1.5649099E0,2.9315643E0,1.8397064E0,1.5140724E-1,7.8157425E0,1.4971619E0,1.1878929E0,1.1414413E0,5.01371E0,6.981964E-1,1.1560211E0,4.2975426E-1,1.3772125E0,0E0,2.3835754E-1,0E0,0E0,0E0,0E0,0E0,0E0,0E0,0E0,0E0,0E0,0E0,0E0,0E0,0E0,0E0,0E0,0E0,0E0,0E0,0E0,0E0,0E0,0E0,0E0,0E0,0E0,0E0,0E0,0E0,0E0,0E0,0E0,0E0,0E0,0E0,0E0,0E0,0E0,0E0,0E0,0E0,0E0,0E0,0E0,0E0,0E0,0E0,0E0,0E0,0E0,0E0,0E0,0E0,0E0,0E0,0E0,0E0,0E0,0E0,0E0,0E0],"parents":[2147483647,0,0,1,1,2,2,3,3,4,4,5,5,6,6,7,7,8,8,9,9,10,10,11,11,12,12,13,13,14,14,15,15,16,16,17,17,18,18,19,19,20,20,21,21,22,22,23,23,24,24,25,25,26,26,27,27,28,28,29,29,30,30,31,31,32,32,33,33,34,34,35,35,36,36,37,37,38,38,39,39,40,40,41,41,42,42,43,43,44,44,45,45,46,46,47,47,48,48,49,49,50,50,51,51,52,52,53,53,54,54,55,55,56,56,57,57,58,58,59,59,61,61],"right_children":[2,4,6,8,10,12,14,16,18,20,22,24,26,28,30,32,34,36,38,40,42,44,46,48,50,52,54,56,58,60,62,64,66,68,70,72,74,76,78,80,82,84,86,88,90,92,94,96,98,100,102,104,106,108,110,112,114,116,118,120,-1,122,-1,-1,-1,-1,-1,-1,-1,-1,-1,-1,-1,-1,-1,-1,-1,-1,-1,-1,-1,-1,-1,-1,-1,-1,-1,-1,-1,-1,-1,-1,-1,-1,-1,-1,-1,-1,-1,-1,-1,-1,-1,-1,-1,-1,-1,-1,-1,-1,-1,-1,-1,-1,-1,-1,-1,-1,-1,-1,-1,-1,-1],"split_conditions":[2.8292152E-1,-6.160338E-1,1.4205375E0,-2.5009555E-1,2.9627162E-1,1.1502589E0,2.488544E0,-4.7116306E-1,-7.9650736E-1,-2.5291735E-1,1.0037102E0,1.0037102E0,1.4241368E-2,1.6414568E-1,2.1411379E-1,-1.1777928E0,-5.5771565E-1,-1.1092659E0,-2.099143E-1,-4.7116306E-1,-6.326604E-2,1.1502589E0,1.1934556E1,-3.1247225E-1,1.6085242E0,9.088929E-1,8.95484E-1,-5.425461E-1,4.9354267E0,3.4232986E0,3.8439379E0,-1.156998E0,-3.7122738E-1,-3.5695025E-1,-4.3547156E-1,-1.135025E0,-1.0779186E0,1.0037102E0,-9.780025E-1,9.088929E-1,-1.8246683E-1,-1.1564399E0,7.5796425E-1,2.443727E0,9.088929E-1,1.3990717E0,-4.1522187E-1,-4.7116306E-1,1.5498649E0,4.9354267E0,2.121793E0,-2.3672912E-1,-7.566951E-1,1.1934556E1,3.6248546E0,-1.784366E-1,2.0338042E0,1.1502589E0,1.049295E0,-3.0567053E-1,7.7505246E-2,2.3552868E-1,5.522076E-2,-2.8690714E-2,-1.4219119E-2,-6.5492117E-3,4.3162955E-3,-2.5245463E-2,-3.8339194E-2,-4.343196E-3,-2.002061E-2,-1.8442543E-2,-4.05141E-2,-1.4945765E-2,-2.6940435E-2,-2.1613482E-2,-2.2827003E-3,-2.163003E-2,-9.143959E-3,2.8526005E-3,1.0604831E-2,-1.5495934E-2,-5.5559687E-3,2.7148618E-4,-1.4028043E-2,-5.6033893E-3,4.79648E-3,-1.163744E-4,1.3407262E-2,1.0017483E-2,1.9079726E-2,1.5007781E-2,-2.0699757E-3,7.16095E-3,4.1181542E-2,2.3314627E-2,9.112035E-3,6.813681E-3,1.87503E-2,1.62838E-2,3.2078005E-2,3.32252E-2,5.4885175E-2,3.2280285E-2,1.6057169E-2,2.9606897E-2,4.1463062E-2,1.266429E-2,4.079635E-2,2.0541187E-2,3.4377005E-2,4.4909846E-2,2.2286534E-2,4.691657E-2,5.8244634E-2,1.1731002E-2,2.8166264E-2,5.4311883E-2,2.4287578E-2,-6.484985E-5,5.886949E-2,7.3232176E-3,4.1257177E-2],"split_indices":[13,13,13,10,6,6,13,12,9,10,8,8,12,12,12,9,6,13,9,12,9,6,7,10,9,5,13,12,8,13,13,13,9,12,12,12,12,8,13,5,13,12,9,5,5,12,9,12,9,8,9,10,12,7,8,10,9,6,12,3,0,12,0,0,0,0,0,0,0,0,0,0,0,0,0,0,0,0,0,0,0,0,0,0,0,0,0,0,0,0,0,0,0,0,0,0,0,0,0,0,0,0,0,0,0,0,0,0,0,0,0,0,0,0,0,0,0,0,0,0,0,0,0],"split_type":[0,0,0,0,0,0,0,0,0,0,0,0,0,0,0,0,0,0,0,0,0,0,0,0,0,0,0,0,0,0,0,0,0,0,0,0,0,0,0,0,0,0,0,0,0,0,0,0,0,0,0,0,0,0,0,0,0,0,0,0,0,0,0,0,0,0,0,0,0,0,0,0,0,0,0,0,0,0,0,0,0,0,0,0,0,0,0,0,0,0,0,0,0,0,0,0,0,0,0,0,0,0,0,0,0,0,0,0,0,0,0,0,0,0,0,0,0,0,0,0,0,0,0],"sum_hessian":[1.3016E4,9.399E3,3.617E3,3.618E3,5.781E3,2.547E3,1.07E3,1.393E3,2.225E3,3.216E3,2.565E3,1.227E3,1.32E3,7.09E2,3.61E2,1.108E3,2.85E2,1.1E3,1.125E3,1.035E3,2.181E3,2.337E3,2.28E2,1.045E3,1.82E2,4.54E2,8.66E2,2.77E2,4.32E2,1.6E2,2.01E2,2.64E2,8.44E2,1.27E2,1.58E2,2.07E2,8.93E2,8.26E2,2.99E2,6.65E2,3.7E2,1.533E3,6.48E2,2.167E3,1.7E2,2.2E2,8E0,9.2E1,9.53E2,1.64E2,1.8E1,3.04E2,1.5E2,4.4E2,4.26E2,1.17E2,1.6E2,4.14E2,1.8E1,9.1E1,6.9E1,1.41E2,6E1,4.3E1,2.21E2,7.1E2,1.34E2,4.2E1,8.5E1,1.1E1,1.47E2,1.2E1,1.95E2,6.6E1,8.27E2,8.04E2,2.2E1,6E1,2.39E2,3.39E2,3.26E2,2.47E2,1.23E2,6.6E1,1.467E3,5.53E2,9.5E1,2.057E3,1.1E2,1.39E2,3.1E1,2.06E2,1.4E1,1E0,7E0,6.1E1,3.1E1,8.99E2,5.4E1,1.42E2,2.2E1,1E1,8E0,1.54E2,1.5E2,5.9E1,9.1E1,4.37E2,3E0,4.09E2,1.7E1,7.6E1,4.1E1,1.14E2,4.6E1,1.3E1,4.01E2,1.4E1,4E0,1E0,9E1,1E0,1.4E2],"tree_param":{"num_deleted":"0","num_feature":"15","num_nodes":"123","size_leaf_vector":"1"}},{"base_weights":[2.3803513E-3,-1.9333719E-1,4.0349928E-1,-3.7481335E-1,-8.6490765E-2,2.6815057E-1,7.9879E-1,-2.4391977E-1,-4.7182575E-1,-1.5474729E-1,2.4165383E-2,1.7392999E-1,3.8836175E-1,6.7061013E-1,1.049786E0,-1.6387226E-1,-5.632229E-1,-5.8518666E-1,-3.9538264E-1,-2.3528459E-2,-2.1442823E-1,7.4953185E-3,2.7544102E-1,1.0818159E-1,2.9266772E-1,5.09742E-1,3.121872E-1,8.554074E-1,5.4441977E-1,1.2764397E0,8.903642E-1,-2.6426044E-1,-6.0032997E-2,-6.562023E-1,-3.742072E-1,-6.2903845E-1,-3.5456815E-1,-4.3142065E-1,-2.7375832E-1,9.624376E-2,-2.6470736E-1,-2.6493847E-1,-7.9343535E-2,6.784259E-2,-5.7856813E-2,4.2080346E-1,1.7932944E-1,5.2527774E-2,1.964541E-1,2.6493415E-1,6.485495E-1,4.3414423E-1,6.8689793E-1,2.5629056E-1,4.009447E-1,8.265355E-1,6.827789E-2,5.352331E-1,6.0912102E-2,1.0749139E0,7.0081435E-2,7.9551995E-1,5.4995757E-2,-2.2114364E-2,-1.0545003E-2,-1.2095565E-2,-1.4468633E-3,-3.7391294E-2,-2.4122402E-2,-2.2507746E-2,-1.3345196E-2,-3.8392264E-2,-2.7931292E-2,-2.0383485E-2,-3.3010938E-3,-1.2889393E-2,-2.222342E-2,-1.5178248E-2,-3.1569365E-3,6.4175745E-4,9.387892E-3,-1.6890876E-2,-8.370421E-3,-1.4875287E-2,-7.4401046E-3,-5.5787372E-3,5.8537056E-3,7.194796E-3,-4.3361094E-3,-4.967119E-3,3.5871917E-3,2.4100991E-2,4.078468E-3,3.8300466E-3,1.35225225E-2,1.2450046E-2,1.9035809E-3,2.1338684E-2,8.623756E-3,2.2288527E-2,9.72646E-3,3.6901634E-2,1.307776E-2,1.8848721E-2,3.5926178E-2,3.0165562E-2,4.4169325E-2,1.2510543E-2,4.210933E-2,2.4509585E-2,1.7724937E-2,3.379112E-2,4.5012902E-2,3.132328E-2,2.4719348E-2,5.5543162E-2,1.4246011E-2,1.9625293E-2,4.0752415E-2],"categories":[],"categories_nodes":[],"categories_segments":[],"categories_sizes":[],"default_left":[0,0,0,0,0,0,0,0,0,0,0,0,0,0,0,0,0,0,0,0,0,0,0,0,0,0,0,0,0,0,0,0,0,0,0,0,0,0,0,0,0,0,0,0,0,0,0,0,0,0,0,0,0,0,0,0,0,0,0,0,0,0,0,0,0,0,0,0,0,0,0,0,0,0,0,0,0,0,0,0,0,0,0,0,0,0,0,0,0,0,0,0,0,0,0,0,0,0,0,0,0,0,0,0,0,0,0,0,0,0,0,0,0,0,0,0,0,0,0],"id":2,"left_children":[1,3,5,7,9,11,13,15,17,19,21,23,25,27,29,31,33,35,37,39,41,43,45,47,49,51,53,55,57,59,61,63,65,67,69,71,73,75,77,79,81,83,85,87,89,91,93,95,97,99,101,103,105,107,109,111,-1,113,-1,115,-1,117,-1,-1,-1,-1,-1,-1,-1,-1,-1,-1,-1,-1,-1,-1,-1,-1,-1,-1,-1,-1,-1,-1,-1,-1,-1,-1,-1,-1,-1,-1,-1,-1,-1,-1,-1,-1,-1,-1,-1,-1,-1,-1,-1,-1,-1,-1,-1,-1,-1,-1,-1,-1,-1,-1,-1,-1,-1],"loss_changes":[1.0160243E3,1.686225E2,2.268487E2,4.0811554E1,4.136399E1,3.575775E1,3.4106873E1,3.5026352E1,1.580011E1,2.6519447E1,8.752488E0,1.3825439E1,1.2683685E1,1.6301086E1,1.2016113E1,1.1450796E1,4.5874557E0,7.290924E0,4.7383575E0,3.0645203E1,1.5863289E1,7.7377615E0,1.7407684E0,5.609811E0,6.065941E0,6.853424E0,4.1440735E0,3.1427307E0,2.0097427E0,2.2272491E0,3.4378052E0,5.2169876E0,3.0583558E0,2.5525665E0,6.377487E-1,5.6601257E0,1.8270779E0,1.8179016E0,1.587965E0,5.4094315E0,2.4474106E0,6.362854E0,4.0331078E0,1.2002749E1,5.071842E0,1.019783E0,7.281413E-1,1.9872133E0,2.367485E0,7.3995705E0,1.3652878E0,5.858368E0,2.062004E0,1.6700516E0,1.1899834E0,2.4693146E0,0E0,1.277771E0,0E0,1.4158783E0,0E0,8.8423157E-1,0E0,0E0,0E0,0E0,0E0,0E0,0E0,0E0,0E0,0E0,0E0,0E0,0E0,0E0,0E0,0E0,0E0,0E0,0E0,0E0,0E0,0E0,0E0,0E0,0E0,0E0,0E0,0E0,0E0,0E0,0E0,0E0,0E0,0E0,0E0,0E0,0E0,0E0,0E0,0E0,0E0,0E0,0E0,0E0,0E0,0E0,0E0,0E0,0E0,0E0,0E0,0E0,0E0,0E0,0E0,0E0,0E0],"parents":[2147483647,0,0,1,1,2,2,3,3,4,4,5,5,6,6,7,7,8,8,9,9,10,10,11,11,12,12,13,13,14,14,15,15,16,16,17,17,18,18,19,19,20,20,21,21,22,22,23,23,24,24,25,25,26,26,27,27,28,28,29,29,30,30,31,31,32,32,33,33,34,34,35,35,36,36,37,37,38,38,39,39,40,40,41,41,42,42,43,43,44,44,45,45,46,46,47,47,48,48,49,49,50,50,51,51,52,52,53,53,54,54,55,55,57,57,59,59,61,61],"right_children":[2,4,6,8,10,12,14,16,18,20,22,24,26,28,30,32,34,36,38,40,42,44,46,48,50,52,54,56,58,60,62,64,66,68,70,72,74,76,78,80,82,84,86,88,90,92,94,96,98,100,102,104,106,108,110,112,-1,114,-1,116,-1,118,-1,-1,-1,-1,-1,-1,-1,-1,-1,-1,-1,-1,-1,-1,-1,-1,-1,-1,-1,-1,-1,-1,-1,-1,-1,-1,-1,-1,-1,-1,-1,-1,-1,-1,-1,-1,-1,-1,-1,-1,-1,-1,-1,-1,-1,-1,-1,-1,-1,-1,-1,-1,-1,-1,-1,-1,-1],"split_conditions":[1.3972509E-1,-6.5581053E-1,1.4205375E0,-2.3583803E-1,2.9627162E-1,1.1502589E0,2.488544E0,-4.4974816E-1,-5.5771565E-1,-2.590065E-1,8.4595317E-1,9.088929E-1,1.2845418E-1,1.6414568E-1,9.9900976E-2,-8.9916116E-1,-8.9916116E-1,-3.5656255E-1,-4.1522187E-1,-3.9264175E-1,-6.326604E-2,-2.3305334E-1,-1.4764005E-1,4.897608E-1,1.3298925E0,9.088929E-1,1.0088478E0,1.1934556E1,1.1934556E1,2.8582332E0,3.8439379E0,-1.0794333E0,-1.0913663E0,-5.5771565E-1,-7.811074E-1,-1.1092659E0,6.1131597E-1,-2.136349E-1,4.3533805E-1,9.088929E-1,1.2134758E0,-2.520762E-1,7.1396977E-1,-3.3553535E-1,3.3268428E-1,2.640819E-1,-1.0473558E-1,-1.1207484E0,-1.0422271E0,-2.114814E-1,8.325856E-1,2.004246E0,1.3298925E0,1.1934556E1,-1.6209298E-1,-7.4241847E-1,6.827789E-2,7.637629E-1,6.0912102E-2,4.5456004E0,7.0081435E-2,2.004246E0,5.4995757E-2,-2.2114364E-2,-1.0545003E-2,-1.2095565E-2,-1.4468633E-3,-3.7391294E-2,-2.4122402E-2,-2.2507746E-2,-1.3345196E-2,-3.8392264E-2,-2.7931292E-2,-2.0383485E-2,-3.3010938E-3,-1.2889393E-2,-2.222342E-2,-1.5178248E-2,-3.1569365E-3,6.4175745E-4,9.387892E-3,-1.6890876E-2,-8.370421E-3,-1.4875287E-2,-7.4401046E-3,-5.5787372E-3,5.8537056E-3,7.194796E-3,-4.3361094E-3,-4.967119E-3,3.5871917E-3,2.4100991E-2,4.078468E-3,3.8300466E-3,1.35225225E-2,1.2450046E-2,1.9035809E-3,2.1338684E-2,8.623756E-3,2.2288527E-2,9.72646E-3,3.6901634E-2,1.307776E-2,1.8848721E-2,3.5926178E-2,3.0165562E-2,4.4169325E-2,1.2510543E-2,4.210933E-2,2.4509585E-2,1.7724937E-2,3.379112E-2,4.5012902E-2,3.132328E-2,2.4719348E-2,5.5543162E-2,1.4246011E-2,1.9625293E-2,4.0752415E-2],"split_indices":[13,13,13,10,6,6,13,12,6,10,9,5,12,12,12,9,9,9,9,12,9,10,1,13,9,5,13,7,7,6,13,13,13,6,13,13,9,10,9,5,12,13,9,12,9,12,10,12,12,10,10,6,9,7,14,12,0,12,0,14,0,6,0,0,0,0,0,0,0,0,0,0,0,0,0,0,0,0,0,0,0,0,0,0,0,0,0,0,0,0,0,0,0,0,0,0,0,0,0,0,0,0,0,0,0,0,0,0,0,0,0,0,0,0,0,0,0,0,0],"split_type":[0,0,0,0,0,0,0,0,0,0,0,0,0,0,0,0,0,0,0,0,0,0,0,0,0,0,0,0,0,0,0,0,0,0,0,0,0,0,0,0,0,0,0,0,0,0,0,0,0,0,0,0,0,0,0,0,0,0,0,0,0,0,0,0,0,0,0,0,0,0,0,0,0,0,0,0,0,0,0,0,0,0,0,0,0,0,0,0,0,0,0,0,0,0,0,0,0,0,0,0,0,0,0,0,0,0,0,0,0,0,0,0,0,0,0,0,0,0,0],"sum_hessian":[1.294E4,8.697E3,4.243E3,3.222E3,5.475E3,3.162E3,1.081E3,1.373E3,1.849E3,3.386E3,2.089E3,1.774E3,1.388E3,7.18E2,3.63E2,1.099E3,2.74E2,7.42E2,1.107E3,1.059E3,2.327E3,1.96E3,1.29E2,1.143E3,6.31E2,5.33E2,8.55E2,2.89E2,4.29E2,1.47E2,2.16E2,5.58E2,5.41E2,1.82E2,9.2E1,6.22E2,1.2E2,8.52E2,2.55E2,7.08E2,3.51E2,1.693E3,6.34E2,1.019E3,9.41E2,5E1,7.9E1,7.02E2,4.41E2,5.87E2,4.4E1,3.76E2,1.57E2,5.27E2,3.28E2,2.76E2,1.3E1,4.25E2,4E0,6E1,8.7E1,1.52E2,6.4E1,1.27E2,4.31E2,7.8E1,4.63E2,1.17E2,6.5E1,5.2E1,4E1,2.06E2,4.16E2,1.01E2,1.9E1,6.1E1,7.91E2,2.23E2,3.2E1,3.71E2,3.37E2,1.99E2,1.52E2,1.321E3,3.72E2,5.45E2,8.9E1,6.83E2,3.36E2,7.13E2,2.28E2,4.2E1,8E0,3.8E1,4.1E1,4.7E1,6.55E2,4E1,4.01E2,1.63E2,4.24E2,3.5E1,9E0,3.15E2,6.1E1,1.13E2,4.4E1,5.23E2,4E0,1.09E2,2.19E2,9.4E1,1.82E2,1.27E2,2.98E2,5.7E1,3E0,8E0,1.44E2],"tree_param":{"num_deleted":"0","num_feature":"15","num_nodes":"119","size_leaf_vector":"1"}},{"base_weights":[1.7185379E-3,-3.4012634E-1,2.1117045E-1,-5.1086485E-1,-8.58264E-2,3.2897055E-2,5.4198515E-1,-6.415633E-1,-4.3427432E-1,-1.7604718E-1,1.6918224E-1,-1.2299871E-1,1.2643398E-1,4.4304106E-1,8.771193E-1,-3.700883E-1,-6.638855E-1,-5.18229E-1,-3.5251826E-1,-2.71347E-1,-6.116547E-2,8.4704444E-2,4.347786E-1,-6.2878445E-2,-2.8681263E-1,1.841415E-1,-4.955546E-2,5.033066E-1,1.915284E-1,1.0529844E0,7.264561E-1,-3.509284E-2,-3.1128684E-1,-7.5043696E-1,-6.1248934E-1,-5.7291496E-1,-4.2948392E-1,-2.2043755E-2,-3.7284756E-1,-3.2447278E-1,-8.62604E-2,-1.4332221E-1,7.097354E-2,-5.1571865E-2,2.1918549E-1,3.324221E-1,7.1006274E-1,-2.4586777E-1,-6.6447696E-3,-3.8111582E-1,-2.3072876E-1,1.1728733E-1,2.7701405E-1,-8.3146386E-2,6.9134094E-2,6.051848E-1,4.0921202E-1,9.4389625E-2,2.9936618E-1,9.789257E-1,1.4740286E0,6.163083E-1,9.16509E-1,1.513691E-3,-1.6561855E-2,-4.2495873E-2,-3.516948E-2,-3.232553E-2,-2.1508057E-2,-2.8871546E-2,1.0240078E-2,-2.4370415E-2,-1.6873047E-2,-6.5080384E-3,8.9537455E-3,-2.18103E-2,-1.129087E-2,-1.8674394E-2,-1.2350447E-2,-1.0093027E-2,-1.4824187E-3,6.308044E-3,-8.965194E-3,2.12839E-2,1.6222578E-3,-6.169318E-3,2.8628602E-3,7.0350687E-3,1.8585546E-2,1.8205073E-2,-5.439786E-3,3.9407324E-2,1.8376643E-2,-5.0912104E-3,-1.5384622E-2,1.286764E-3,-6.895844E-3,-2.6137194E-2,-1.7811688E-2,-1.7844746E-2,-1.0224203E-2,-3.4322299E-3,7.953477E-3,1.9480322E-2,9.173035E-3,-7.3792576E-3,-2.5782639E-3,-5.4221037E-3,4.5449515E-3,2.3600865E-2,3.860826E-2,1.573453E-2,2.3431629E-2,-1.7677328E-3,6.3602203E-3,8.810481E-3,1.9536404E-2,5.1757466E-2,2.9316677E-2,1.5662432E-2,7.473501E-2,2.9478395E-2,5.4025114E-2,4.004194E-2,5.3545475E-2],"categories":[],"categories_nodes":[],"categories_segments":[],"categories_sizes":[],"default_left":[0,0,0,0,0,0,0,0,0,0,0,0,0,0,0,0,0,0,0,0,0,0,0,0,0,0,0,0,0,0,0,0,0,0,0,0,0,0,0,0,0,0,0,0,0,0,0,0,0,0,0,0,0,0,0,0,0,0,0,0,0,0,0,0,0,0,0,0,0,0,0,0,0,0,0,0,0,0,0,0,0,0,0,0,0,0,0,0,0,0,0,0,0,0,0,0,0,0,0,0,0,0,0,0,0,0,0,0,0,0,0,0,0,0,0,0,0,0,0,0,0,0,0,0,0],"id":3,"left_children":[1,3,5,7,9,11,13,15,17,19,21,23,25,27,29,31,33,35,37,39,41,43,45,47,49,51,53,55,57,59,61,-1,63,65,67,69,71,73,75,77,79,81,83,85,87,89,91,93,95,97,99,101,103,105,107,109,111,113,115,117,119,121,123,-1,-1,-1,-1,-1,-1,-1,-1,-1,-1,-1,-1,-1,-1,-1,-1,-1,-1,-1,-1,-1,-1,-1,-1,-1,-1,-1,-1,-1,-1,-1,-1,-1,-1,-1,-1,-1,-1,-1,-1,-1,-1,-1,-1,-1,-1,-1,-1,-1,-1,-1,-1,-1,-1,-1,-1,-1,-1,-1,-1,-1,-1],"loss_changes":[9.3022815E2,2.1427142E2,4.7508844E2,2.9281677E1,4.5675827E1,7.636697E1,9.315448E1,6.353546E0,1.2618317E1,1.6033474E1,1.1607972E1,1.9324492E1,3.3249428E1,3.2947083E1,1.6245728E1,1.4397421E0,4.011017E0,4.2091064E0,6.3607407E0,7.8481407E0,7.240342E0,7.2503033E0,3.2860985E0,1.4795619E1,2.6993103E0,1.5272491E1,3.2311435E0,1.6604858E1,4.402766E0,7.7245483E0,6.7410736E0,0E0,5.1427937E-1,1.1338806E0,3.6670074E0,2.1026E0,1.7224655E0,1.2409921E0,8.220329E0,2.2694168E0,1.1719997E0,4.007863E0,3.484733E0,1.5467191E0,2.329894E0,1.3395185E0,5.929489E-1,2.9787102E0,4.6834574E0,5.009613E-1,1.0296478E0,1.1158928E1,1.078846E1,1.276505E0,7.016802E-1,1.835852E1,5.0028687E0,9.5818436E-1,2.1815147E0,4.977524E0,5.395889E-1,2.1434174E0,1.3926849E0,0E0,0E0,0E0,0E0,0E0,0E0,0E0,0E0,0E0,0E0,0E0,0E0,0E0,0E0,0E0,0E0,0E0,0E0,0E0,0E0,0E0,0E0,0E0,0E0,0E0,0E0,0E0,0E0,0E0,0E0,0E0,0E0,0E0,0E0,0E0,0E0,0E0,0E0,0E0,0E0,0E0,0E0,0E0,0E0,0E0,0E0,0E0,0E0,0E0,0E0,0E0,0E0,0E0,0E0,0E0,0E0,0E0,0E0,0E0,0E0,0E0,0E0],"parents":[2147483647,0,0,1,1,2,2,3,3,4,4,5,5,6,6,7,7,8,8,9,9,10,10,11,11,12,12,13,13,14,14,15,15,16,16,17,17,18,18,19,19,20,20,21,21,22,22,23,23,24,24,25,25,26,26,27,27,28,28,29,29,30,30,32,32,33,33,34,34,35,35,36,36,37,37,38,38,39,39,40,40,41,41,42,42,43,43,44,44,45,45,46,46,47,47,48,48,49,49,50,50,51,51,52,52,53,53,54,54,55,55,56,56,57,57,58,58,59,59,60,60,61,61,62,62],"right_children":[2,4,6,8,10,12,14,16,18,20,22,24,26,28,30,32,34,36,38,40,42,44,46,48,50,52,54,56,58,60,62,-1,64,66,68,70,72,74,76,78,80,82,84,86,88,90,92,94,96,98,100,102,104,106,108,110,112,114,116,118,120,122,124,-1,-1,-1,-1,-1,-1,-1,-1,-1,-1,-1,-1,-1,-1,-1,-1,-1,-1,-1,-1,-1,-1,-1,-1,-1,-1,-1,-1,-1,-1,-1,-1,-1,-1,-1,-1,-1,-1,-1,-1,-1,-1,-1,-1,-1,-1,-1,-1,-1,-1,-1,-1,-1,-1,-1,-1,-1,-1,-1,-1,-1,-1],"split_conditions":[-1.8937376E-1,-6.972018E-2,3.051436E-1,-8.304731E-1,9.225663E-1,-6.871429E-1,1.7163955E0,-1.135025E0,-1.1761149E0,-9.925015E-1,-4.0623996E-1,1.0301371E0,1.1031487E0,1.1378473E0,2.1411379E-1,-1.6206906E0,-1.1722608E0,-2.5390878E-1,-1.1064718E0,-2.2352984E-2,4.646677E-1,-5.702484E-2,2.121793E0,7.37572E-2,-1.073032E0,-1.6591983E-1,2.5936013E-1,1.9269888E-1,7.726291E-1,3.4032824E0,2.5763772E0,-3.509284E-2,-1.4656515E0,-1.0980431E0,-3.910593E-1,1.1934556E1,3.497415E-1,-4.4455153E-1,3.6401808E-1,5.0866216E-1,1.2368192E-1,-1.063642E0,-9.422909E-1,-9.25273E-1,9.1849303E-1,2.8207576E0,5.99582E-1,-1.1564399E0,9.354388E-1,-2.6494715E-1,-2.9021683E-1,4.7010373E-2,1.9269888E-1,-4.4458395E-1,-3.7843153E-1,4.646677E-1,9.192773E-1,1.7908713E-1,-7.2720028E-3,1.0156794E0,6.7596126E-1,4.9354267E0,2.4661775E0,1.513691E-3,-1.6561855E-2,-4.2495873E-2,-3.516948E-2,-3.232553E-2,-2.1508057E-2,-2.8871546E-2,1.0240078E-2,-2.4370415E-2,-1.6873047E-2,-6.5080384E-3,8.9537455E-3,-2.18103E-2,-1.129087E-2,-1.8674394E-2,-1.2350447E-2,-1.0093027E-2,-1.4824187E-3,6.308044E-3,-8.965194E-3,2.12839E-2,1.6222578E-3,-6.169318E-3,2.8628602E-3,7.0350687E-3,1.8585546E-2,1.8205073E-2,-5.439786E-3,3.9407324E-2,1.8376643E-2,-5.0912104E-3,-1.5384622E-2,1.286764E-3,-6.895844E-3,-2.6137194E-2,-1.7811688E-2,-1.7844746E-2,-1.0224203E-2,-3.4322299E-3,7.953477E-3,1.9480322E-2,9.173035E-3,-7.3792576E-3,-2.5782639E-3,-5.4221037E-3,4.5449515E-3,2.3600865E-2,3.860826E-2,1.573453E-2,2.3431629E-2,-1.7677328E-3,6.3602203E-3,8.810481E-3,1.9536404E-2,5.1757466E-2,2.9316677E-2,1.5662432E-2,7.473501E-2,2.9478395E-2,5.4025114E-2,4.004194E-2,5.3545475E-2],"split_indices":[11,2,2,2,2,2,2,12,11,11,11,11,11,11,12,11,2,9,12,3,9,10,9,11,2,9,9,12,9,2,2,0,0,11,11,7,12,9,12,9,10,12,12,11,3,0,12,12,11,10,3,11,12,2,2,9,9,1,10,11,14,8,1,0,0,0,0,0,0,0,0,0,0,0,0,0,0,0,0,0,0,0,0,0,0,0,0,0,0,0,0,0,0,0,0,0,0,0,0,0,0,0,0,0,0,0,0,0,0,0,0,0,0,0,0,0,0,0,0,0,0,0,0,0,0],"split_type":[0,0,0,0,0,0,0,0,0,0,0,0,0,0,0,0,0,0,0,0,0,0,0,0,0,0,0,0,0,0,0,0,0,0,0,0,0,0,0,0,0,0,0,0,0,0,0,0,0,0,0,0,0,0,0,0,0,0,0,0,0,0,0,0,0,0,0,0,0,0,0,0,0,0,0,0,0,0,0,0,0,0,0,0,0,0,0,0,0,0,0,0,0,0,0,0,0,0,0,0,0,0,0,0,0,0,0,0,0,0,0,0,0,0,0,0,0,0,0,0,0,0,0,0,0],"sum_hessian":[1.299E4,4.935E3,8.055E3,2.952E3,1.983E3,5.235E3,2.82E3,1.088E3,1.864E3,1.465E3,5.18E2,1.963E3,3.272E3,2.179E3,6.41E2,8.4E1,1.004E3,9.17E2,9.47E2,8E2,6.65E2,3.94E2,1.24E2,1.437E3,5.26E2,2.464E3,8.08E2,1.757E3,4.22E2,2.93E2,3.48E2,1.1E1,7.3E1,3.69E2,6.35E2,5.64E2,3.53E2,5.5E1,8.92E2,6.21E2,1.79E2,4.1E2,2.55E2,1.96E2,1.98E2,9.2E1,3.2E1,3.37E2,1.1E3,1.94E2,3.32E2,1.434E3,1.03E3,6.3E2,1.78E2,8.41E2,9.16E2,2.23E2,1.99E2,2.52E2,4.1E1,2.23E2,1.25E2,4E0,6.9E1,1.13E2,2.56E2,5.33E2,1.02E2,5.61E2,3E0,2.14E2,1.39E2,3.6E1,1.9E1,6.22E2,2.7E2,3.78E2,2.43E2,5.8E1,1.21E2,4.8E1,3.62E2,2.4E1,2.31E2,1.18E2,7.8E1,1.32E2,6.6E1,8.6E1,6E0,2.5E1,7E0,1.02E2,2.35E2,8.83E2,2.17E2,2.6E1,1.68E2,5.5E1,2.77E2,2.63E2,1.171E3,4.66E2,5.64E2,2.06E2,4.24E2,1.9E1,1.59E2,4.7E2,3.71E2,3.56E2,5.6E2,4.5E1,1.78E2,8.6E1,1.13E2,2.19E2,3.3E1,1E0,4E1,2.13E2,1E1,7.5E1,5E1],"tree_param":{"num_deleted":"0","num_feature":"15","num_nodes":"125","size_leaf_vector":"1"}},{"base_weights":[1.9178833E-3,-3.3124587E-1,1.9530721E-1,-4.7427446E-1,-4.2528123E-2,2.5611723E-2,5.3863513E-1,-5.9330577E-1,-3.7954724E-1,-1.2210992E-1,2.4073116E-1,-9.477035E-2,1.4682163E-1,4.085343E-1,7.945371E-1,-6.0597396E-1,-2.4459927E-1,-4.5469952E-1,-2.860997E-1,-2.1895967E-1,-6.031685E-4,1.6375762E-1,5.263479E-1,-4.4867713E-2,-2.3468415E-1,1.9722354E-1,-1.3303531E-2,4.5841002E-1,1.901512E-1,1.0009556E0,6.425189E-1,-6.9516385E-1,-5.609568E-1,-3.3275735E-1,6.9644295E-2,-4.7548246E-1,-2.0096177E-1,-1.207092E-2,-3.130304E-1,-2.7064702E-1,-2.4602305E-2,-1.4214162E-2,6.0740477E-1,1.157867E-1,3.484339E-1,2.4872498E-1,6.2641835E-1,-2.4541835E-1,1.7606623E-2,-3.1001946E-1,-1.6548795E-1,2.3860168E-2,2.3365937E-1,-5.8068816E-2,8.317797E-2,5.5877846E-1,3.68342E-1,1.2156988E-1,2.7644658E-1,8.990899E-1,1.282282E0,5.584339E-1,8.880461E-1,-2.0978868E-2,-3.6423996E-2,-3.1634398E-2,-2.3887595E-2,-1.961287E-2,1.8897738E-4,-6.1047794E-3,1.8124962E-2,-2.6238918E-2,-2.1482406E-2,-1.2638186E-2,-3.5301168E-3,-5.5835145E-3,7.903199E-3,-1.7503941E-2,-7.3163337E-3,-1.5397298E-2,-8.745783E-3,-2.6994904E-3,1.3897346E-2,-4.4955476E-3,3.2646414E-3,2.1242743E-2,3.8900185E-2,1.0610152E-3,9.54004E-3,1.33542735E-2,3.284713E-2,3.616035E-3,1.6588068E-2,2.1890419E-2,3.8959205E-2,-4.3521817E-3,-1.4854877E-2,-8.081442E-3,2.2236109E-3,-2.1228839E-2,-1.3939268E-2,-6.633097E-3,-1.4230872E-2,-5.1262765E-3,5.688381E-3,1.383235E-2,7.1094446E-3,-3.35241E-3,9.428248E-3,1.5935775E-2,3.4204142E-3,2.2273926E-2,3.261056E-2,1.4842503E-2,2.1394636E-2,4.7630733E-3,9.843313E-3,2.6769463E-2,1.2377276E-2,4.831165E-2,2.8918212E-2,5.8722384E-2,7.874112E-2,2.6502466E-2,4.0594902E-2,4.083542E-2,5.3973615E-2],"categories":[],"categories_nodes":[],"categories_segments":[],"categories_sizes":[],"default_left":[0,0,0,0,0,0,0,0,0,0,0,0,0,0,0,0,0,0,0,0,0,0,0,0,0,0,0,0,0,0,0,0,0,0,0,0,0,0,0,0,0,0,0,0,0,0,0,0,0,0,0,0,0,0,0,0,0,0,0,0,0,0,0,0,0,0,0,0,0,0,0,0,0,0,0,0,0,0,0,0,0,0,0,0,0,0,0,0,0,0,0,0,0,0,0,0,0,0,0,0,0,0,0,0,0,0,0,0,0,0,0,0,0,0,0,0,0,0,0,0,0,0,0,0,0,0,0],"id":4,"left_children":[1,3,5,7,9,11,13,15,17,19,21,23,25,27,29,31,33,35,37,39,41,43,45,47,49,51,53,55,57,59,61,63,65,67,69,71,73,75,77,79,81,83,85,87,89,91,93,95,97,99,101,103,105,107,109,111,113,115,117,119,121,123,125,-1,-1,-1,-1,-1,-1,-1,-1,-1,-1,-1,-1,-1,-1,-1,-1,-1,-1,-1,-1,-1,-1,-1,-1,-1,-1,-1,-1,-1,-1,-1,-1,-1,-1,-1,-1,-1,-1,-1,-1,-1,-1,-1,-1,-1,-1,-1,-1,-1,-1,-1,-1,-1,-1,-1,-1,-1,-1,-1,-1,-1,-1,-1,-1],"loss_changes":[8.339862E2,1.9629565E2,4.771454E2,3.561969E1,3.5556034E1,8.000452E1,8.986633E1,6.067169E0,1.2321335E1,1.4486151E1,7.5205917E0,1.9197138E1,2.2051544E1,1.9496674E1,2.7974854E1,5.058502E0,1.436033E0,5.077667E0,5.8483963E0,6.8747253E0,4.5353827E0,2.3870473E0,1.8722706E0,2.5426205E1,3.717636E0,1.3120399E1,2.8337893E0,1.3019684E1,1.9549255E0,9.880249E0,1.0404724E1,3.8351898E0,5.1110535E0,8.024411E-1,7.180832E-1,1.821579E0,4.9537277E-1,1.2377145E0,4.4079285E0,1.8778725E0,1.3042253E0,3.2317455E0,4.317522E-2,1.5494964E0,1.2299557E0,2.8361416E-1,1.1859646E0,3.9191532E0,7.4612203E0,1.1160774E0,1.4443378E0,4.125076E0,6.712082E0,1.004792E0,7.017909E-1,7.013748E0,3.1682053E0,3.556416E-1,9.7505665E-1,5.6000366E0,1.3050385E0,2.418663E0,9.3463135E-1,0E0,0E0,0E0,0E0,0E0,0E0,0E0,0E0,0E0,0E0,0E0,0E0,0E0,0E0,0E0,0E0,0E0,0E0,0E0,0E0,0E0,0E0,0E0,0E0,0E0,0E0,0E0,0E0,0E0,0E0,0E0,0E0,0E0,0E0,0E0,0E0,0E0,0E0,0E0,0E0,0E0,0E0,0E0,0E0,0E0,0E0,0E0,0E0,0E0,0E0,0E0,0E0,0E0,0E0,0E0,0E0,0E0,0E0,0E0,0E0,0E0,0E0,0E0,0E0],"parents":[2147483647,0,0,1,1,2,2,3,3,4,4,5,5,6,6,7,7,8,8,9,9,10,10,11,11,12,12,13,13,14,14,15,15,16,16,17,17,18,18,19,19,20,20,21,21,22,22,23,23,24,24,25,25,26,26,27,27,28,28,29,29,30,30,31,31,32,32,33,33,34,34,35,35,36,36,37,37,38,38,39,39,40,40,41,41,42,42,43,43,44,44,45,45,46,46,47,47,48,48,49,49,50,50,51,51,52,52,53,53,54,54,55,55,56,56,57,57,58,58,59,59,60,60,61,61,62,62],"right_children":[2,4,6,8,10,12,14,16,18,20,22,24,26,28,30,32,34,36,38,40,42,44,46,48,50,52,54,56,58,60,62,64,66,68,70,72,74,76,78,80,82,84,86,88,90,92,94,96,98,100,102,104,106,108,110,112,114,116,118,120,122,124,126,-1,-1,-1,-1,-1,-1,-1,-1,-1,-1,-1,-1,-1,-1,-1,-1,-1,-1,-1,-1,-1,-1,-1,-1,-1,-1,-1,-1,-1,-1,-1,-1,-1,-1,-1,-1,-1,-1,-1,-1,-1,-1,-1,-1,-1,-1,-1,-1,-1,-1,-1,-1,-1,-1,-1,-1,-1,-1,-1,-1,-1,-1,-1,-1],"split_conditions":[-2.2334947E-1,-2.733739E-2,2.4314474E-1,-6.5581053E-1,1.0088478E0,-4.807927E-1,1.4205375E0,1.0037102E0,-1.0633445E0,-9.925015E-1,2.1206088E0,1.0301371E0,1.1031487E0,1.1378473E0,1.9269888E-1,-9.780025E-1,1.1934556E1,3.729265E-1,-1.0565037E0,4.990663E-2,1.1934556E1,-4.3660122E-1,-1.4609325E0,4.7010373E-2,-7.602246E-1,-5.7603964E-3,-3.529275E-2,1.9269888E-1,7.045554E-1,2.8813398E0,2.8813398E0,-1.1064718E0,-8.9997196E-1,-3.3901143E-1,-1.3991421E0,-3.9129496E-1,-1.4609325E0,1.0037102E0,5.781671E-1,4.897608E-1,5.237952E0,3.226983E-1,8.4065296E-2,-5.472284E-2,3.6248546E0,2.4164745E-1,2.8582332E0,-1.1564399E0,-1.0257347E0,-1.0615337E0,9.229146E-1,-4.0691835E-1,3.4260318E-1,1.0037102E0,-3.9404923E-1,6.170465E-1,7.045554E-1,1.7859642E-1,-1.063642E0,9.751976E-1,4.6205797E0,3.6248546E0,3.7122207E0,-2.0978868E-2,-3.6423996E-2,-3.1634398E-2,-2.3887595E-2,-1.961287E-2,1.8897738E-4,-6.1047794E-3,1.8124962E-2,-2.6238918E-2,-2.1482406E-2,-1.2638186E-2,-3.5301168E-3,-5.5835145E-3,7.903199E-3,-1.7503941E-2,-7.3163337E-3,-1.5397298E-2,-8.745783E-3,-2.6994904E-3,1.3897346E-2,-4.4955476E-3,3.2646414E-3,2.1242743E-2,3.8900185E-2,1.0610152E-3,9.54004E-3,1.33542735E-2,3.284713E-2,3.616035E-3,1.6588068E-2,2.1890419E-2,3.8959205E-2,-4.3521817E-3,-1.4854877E-2,-8.081442E-3,2.2236109E-3,-2.1228839E-2,-1.3939268E-2,-6.633097E-3,-1.4230872E-2,-5.1262765E-3,5.688381E-3,1.383235E-2,7.1094446E-3,-3.35241E-3,9.428248E-3,1.5935775E-2,3.4204142E-3,2.2273926E-2,3.261056E-2,1.4842503E-2,2.1394636E-2,4.7630733E-3,9.843313E-3,2.6769463E-2,1.2377276E-2,4.831165E-2,2.8918212E-2,5.8722384E-2,7.874112E-2,2.6502466E-2,4.0594902E-2,4.083542E-2,5.3973615E-2],"split_indices":[11,13,13,13,13,13,13,8,11,11,13,11,11,11,12,13,7,3,12,10,7,11,11,11,13,11,13,12,13,13,13,12,11,11,12,13,11,8,12,13,3,13,10,10,8,3,6,12,13,13,4,12,12,8,0,13,13,3,12,11,13,8,6,0,0,0,0,0,0,0,0,0,0,0,0,0,0,0,0,0,0,0,0,0,0,0,0,0,0,0,0,0,0,0,0,0,0,0,0,0,0,0,0,0,0,0,0,0,0,0,0,0,0,0,0,0,0,0,0,0,0,0,0,0,0,0,0],"split_type":[0,0,0,0,0,0,0,0,0,0,0,0,0,0,0,0,0,0,0,0,0,0,0,0,0,0,0,0,0,0,0,0,0,0,0,0,0,0,0,0,0,0,0,0,0,0,0,0,0,0,0,0,0,0,0,0,0,0,0,0,0,0,0,0,0,0,0,0,0,0,0,0,0,0,0,0,0,0,0,0,0,0,0,0,0,0,0,0,0,0,0,0,0,0,0,0,0,0,0,0,0,0,0,0,0,0,0,0,0,0,0,0,0,0,0,0,0,0,0,0,0,0,0,0,0,0,0],"sum_hessian":[1.2942E4,4.753E3,8.189E3,3.178E3,1.575E3,5.481E3,2.708E3,1.406E3,1.772E3,1.23E3,3.45E2,2.75E3,2.731E3,1.797E3,9.11E2,1.356E3,5E1,9.8E2,7.92E2,6.84E2,5.46E2,2.73E2,7.2E1,2.028E3,7.22E2,2.077E3,6.54E2,1.462E3,3.35E2,3.84E2,5.27E2,4.5E2,9.06E2,3.9E1,1.1E1,9.05E2,7.5E1,7.1E1,7.21E2,5.4E2,1.44E2,5.35E2,1.1E1,2.18E2,5.5E1,2E1,5.2E1,4.81E2,1.547E3,3.44E2,3.78E2,3.61E2,1.716E3,4.47E2,2.07E2,6.89E2,7.73E2,1.88E2,1.47E2,2.85E2,9.9E1,3.95E2,1.32E2,5E1,4E2,4.83E2,4.23E2,3.3E1,6E0,7E0,4E0,4.31E2,4.74E2,5.3E1,2.2E1,4.5E1,2.6E1,5.89E2,1.32E2,3.87E2,1.53E2,1.32E2,1.2E1,2.74E2,2.61E2,7E0,4E0,9.7E1,1.21E2,4.5E1,1E1,7E0,1.3E1,2.5E1,2.7E1,1.19E2,3.62E2,2.01E2,1.346E3,7.1E1,2.73E2,2.98E2,8E1,1.5E2,2.11E2,1.166E3,5.5E2,4.32E2,1.5E1,1.1E1,1.96E2,3.14E2,3.75E2,3.54E2,4.19E2,1.41E2,4.7E1,1.3E1,1.34E2,2.34E2,5.1E1,7.6E1,2.3E1,3.58E2,3.7E1,1E2,3.2E1],"tree_param":{"num_deleted":"0","num_feature":"15","num_nodes":"127","size_leaf_vector":"1"}},{"base_weights":[2.6874563E-3,-1.461432E-1,3.944292E-1,-4.059326E-1,3.0522957E-2,2.156045E-2,5.160029E-1,-5.1013684E-1,-2.6295698E-1,-9.350447E-2,1.419867E-1,-3.7738416E-2,2.8808728E-1,3.8934654E-1,7.5892156E-1,-6.069033E-1,-4.5022127E-1,-3.4755602E-1,-1.6295354E-1,-3.459328E-2,-2.1577667E-1,1.9340362E-1,-8.439156E-3,-1.274581E-1,9.77478E-2,2.6335534E-1,8.831024E-1,4.3386564E-1,1.798309E-1,9.5416284E-1,6.153494E-1,-3.1002608E-1,-6.342252E-1,-5.2337956E-1,-3.760839E-1,-3.6512607E-1,-1.11556225E-1,9.7151786E-2,-1.8597916E-1,-2.2961298E-1,2.9097449E-2,-3.1624126E-1,-1.679924E-1,3.3572663E-2,2.2533421E-1,-4.9623176E-2,7.8183144E-2,-1.5590113E-1,1.580255E-1,1.8686237E-2,2.013271E-1,2.0136395E-1,3.986409E-1,4.865719E-2,1.0822392E-2,5.358613E-1,3.515874E-1,1.2636997E-1,3.0945083E-1,8.246786E-1,1.1681522E0,5.310193E-1,8.4842545E-1,-3.2187402E-2,-1.3243879E-2,-3.1930637E-2,1.8337011E-2,-2.6931083E-2,-1.2815776E-2,-6.5887882E-3,-1.9989671E-2,-2.0958489E-2,-1.4728615E-2,-1.4315239E-2,-2.484691E-3,8.027866E-3,2.8114687E-4,-1.1145168E-2,-2.8824195E-4,-1.7994434E-2,-8.658095E-3,-2.7603754E-3,4.0202546E-3,-1.5136342E-2,-3.9809804E-2,-1.454109E-2,-7.083458E-3,-2.6347416E-3,7.086417E-3,8.8460455E-3,1.5806293E-2,-2.6680934E-3,3.0187083E-2,1.5784433E-2,3.2268825E-3,-1.0233886E-2,-3.8387936E-3,1.9195521E-2,4.923844E-3,-3.0857825E-3,3.6455446E-3,8.576306E-3,2.8318513E-2,-1.2295842E-3,1.2466948E-2,1.5122637E-2,2.31126E-2,2.2877457E-2,3.5959575E-2,1.858765E-2,7.3697306E-3,5.163933E-3,1.33400215E-2,1.0955589E-2,1.82299E-2,4.3547772E-2,2.3045558E-2,5.3261902E-2,6.9758706E-2,3.0228829E-2,2.33924E-2,4.0800825E-2,6.761255E-2],"categories":[],"categories_nodes":[],"categories_segments":[],"categories_sizes":[],"default_left":[0,0,0,0,0,0,0,0,0,0,0,0,0,0,0,0,0,0,0,0,0,0,0,0,0,0,0,0,0,0,0,0,0,0,0,0,0,0,0,0,0,0,0,0,0,0,0,0,0,0,0,0,0,0,0,0,0,0,0,0,0,0,0,0,0,0,0,0,0,0,0,0,0,0,0,0,0,0,0,0,0,0,0,0,0,0,0,0,0,0,0,0,0,0,0,0,0,0,0,0,0,0,0,0,0,0,0,0,0,0,0,0,0,0,0,0,0,0,0,0,0,0,0],"id":5,"left_children":[1,3,5,7,9,11,13,15,17,19,21,23,25,27,29,31,33,35,37,39,41,43,45,47,49,51,53,55,57,59,61,63,65,67,69,71,73,75,77,79,81,83,85,87,89,91,93,95,97,99,101,103,105,-1,-1,107,109,111,113,115,117,119,121,-1,-1,-1,-1,-1,-1,-1,-1,-1,-1,-1,-1,-1,-1,-1,-1,-1,-1,-1,-1,-1,-1,-1,-1,-1,-1,-1,-1,-1,-1,-1,-1,-1,-1,-1,-1,-1,-1,-1,-1,-1,-1,-1,-1,-1,-1,-1,-1,-1,-1,-1,-1,-1,-1,-1,-1,-1,-1,-1,-1],"loss_changes":[7.604477E2,4.3382126E2,1.6277258E2,5.6868164E1,7.7804085E1,1.3982259E1,8.3022095E1,1.2551575E1,1.360659E1,1.9181864E1,2.2926495E1,8.813244E0,2.1366854E0,1.6543488E1,2.5397827E1,6.641144E0,7.2337036E0,3.5833206E0,4.4619694E0,2.2351963E1,4.1042137E0,1.126606E1,2.7008755E0,3.5649657E0,2.3628993E0,1.2280283E0,1.4952421E-1,1.2139465E1,2.1367903E0,9.870575E0,1.0104385E1,9.2937946E-1,3.6202698E0,2.6584625E0,3.90934E0,2.9764786E0,6.560151E-1,3.5310668E-1,4.536928E0,3.1955929E0,5.874127E0,1.5621681E0,1.8631935E0,3.450356E0,8.036232E0,1.285337E0,7.704009E-1,1.5164919E0,5.0023913E-1,7.2386086E-1,1.2626834E0,1.1877155E0,1.5388536E-1,0E0,0E0,9.060394E0,3.3052216E0,6.988156E-1,3.734684E-1,3.7565613E0,1.9015503E0,1.5618896E0,1.1988525E0,0E0,0E0,0E0,0E0,0E0,0E0,0E0,0E0,0E0,0E0,0E0,0E0,0E0,0E0,0E0,0E0,0E0,0E0,0E0,0E0,0E0,0E0,0E0,0E0,0E0,0E0,0E0,0E0,0E0,0E0,0E0,0E0,0E0,0E0,0E0,0E0,0E0,0E0,0E0,0E0,0E0,0E0,0E0,0E0,0E0,0E0,0E0,0E0,0E0,0E0,0E0,0E0,0E0,0E0,0E0,0E0,0E0,0E0,0E0,0E0],"parents":[2147483647,0,0,1,1,2,2,3,3,4,4,5,5,6,6,7,7,8,8,9,9,10,10,11,11,12,12,13,13,14,14,15,15,16,16,17,17,18,18,19,19,20,20,21,21,22,22,23,23,24,24,25,25,26,26,27,27,28,28,29,29,30,30,31,31,32,32,33,33,34,34,35,35,36,36,37,37,38,38,39,39,40,40,41,41,42,42,43,43,44,44,45,45,46,46,47,47,48,48,49,49,50,50,51,51,52,52,55,55,56,56,57,57,58,58,59,59,60,60,61,61,62,62],"right_children":[2,4,6,8,10,12,14,16,18,20,22,24,26,28,30,32,34,36,38,40,42,44,46,48,50,52,54,56,58,60,62,64,66,68,70,72,74,76,78,80,82,84,86,88,90,92,94,96,98,100,102,104,106,-1,-1,108,110,112,114,116,118,120,122,-1,-1,-1,-1,-1,-1,-1,-1,-1,-1,-1,-1,-1,-1,-1,-1,-1,-1,-1,-1,-1,-1,-1,-1,-1,-1,-1,-1,-1,-1,-1,-1,-1,-1,-1,-1,-1,-1,-1,-1,-1,-1,-1,-1,-1,-1,-1,-1,-1,-1,-1,-1,-1,-1,-1,-1,-1,-1,-1,-1],"split_conditions":[2.8292152E-1,-2.1250616E-1,-3.122646E-1,-4.1714987E-1,-5.0266993E-1,1.3668388E0,1.4205375E0,-8.4077257E-1,-1.0633445E0,9.824265E-1,1.0771247E0,-8.9997196E-1,3.7122207E0,1.1609796E0,2.1411379E-1,-1.135025E0,-1.1761149E0,6.4100003E-1,-1.0707803E0,4.7010373E-2,-8.924824E-1,-5.7603964E-3,-3.529275E-2,1.5357647E0,-1.04772635E-1,9.1849303E-1,2.13945E0,1.5700738E-1,2.5964826E-1,2.488544E0,2.8813398E0,-1.6206906E0,1.1934556E1,5.0461763E-1,-1.0493654E0,-9.197466E-2,-2.4213202E-1,-1.1921314E0,8.922523E-1,-9.780025E-1,-8.4050184E-1,2.377019E0,-2.833142E-1,-1.4070122E-1,-6.7114174E-2,1.1934556E1,-3.9404923E-1,7.602429E-1,-1.1064718E0,5.9665114E-1,1.1934556E1,-1.6980395E0,1.4859958E0,4.865719E-2,1.0822392E-2,8.60618E-1,1.8202313E0,9.8199844E-1,7.2842145E-1,1.0301371E0,3.8439379E0,1.0136034E0,1.1934556E1,-3.2187402E-2,-1.3243879E-2,-3.1930637E-2,1.8337011E-2,-2.6931083E-2,-1.2815776E-2,-6.5887882E-3,-1.9989671E-2,-2.0958489E-2,-1.4728615E-2,-1.4315239E-2,-2.484691E-3,8.027866E-3,2.8114687E-4,-1.1145168E-2,-2.8824195E-4,-1.7994434E-2,-8.658095E-3,-2.7603754E-3,4.0202546E-3,-1.5136342E-2,-3.9809804E-2,-1.454109E-2,-7.083458E-3,-2.6347416E-3,7.086417E-3,8.8460455E-3,1.5806293E-2,-2.6680934E-3,3.0187083E-2,1.5784433E-2,3.2268825E-3,-1.0233886E-2,-3.8387936E-3,1.9195521E-2,4.923844E-3,-3.0857825E-3,3.6455446E-3,8.576306E-3,2.8318513E-2,-1.2295842E-3,1.2466948E-2,1.5122637E-2,2.31126E-2,2.2877457E-2,3.5959575E-2,1.858765E-2,7.3697306E-3,5.163933E-3,1.33400215E-2,1.0955589E-2,1.82299E-2,4.3547772E-2,2.3045558E-2,5.3261902E-2,6.9758706E-2,3.0228829E-2,2.33924E-2,4.0800825E-2,6.761255E-2],"split_indices":[13,11,11,13,13,13,13,13,11,11,11,11,6,11,12,12,11,10,12,11,13,11,13,3,3,3,1,12,10,13,13,11,7,3,12,13,13,12,12,13,9,12,3,13,13,7,0,13,12,9,7,11,1,0,0,9,12,13,13,11,13,12,7,0,0,0,0,0,0,0,0,0,0,0,0,0,0,0,0,0,0,0,0,0,0,0,0,0,0,0,0,0,0,0,0,0,0,0,0,0,0,0,0,0,0,0,0,0,0,0,0,0,0,0,0,0,0,0,0,0,0,0,0],"split_type":[0,0,0,0,0,0,0,0,0,0,0,0,0,0,0,0,0,0,0,0,0,0,0,0,0,0,0,0,0,0,0,0,0,0,0,0,0,0,0,0,0,0,0,0,0,0,0,0,0,0,0,0,0,0,0,0,0,0,0,0,0,0,0,0,0,0,0,0,0,0,0,0,0,0,0,0,0,0,0,0,0,0,0,0,0,0,0,0,0,0,0,0,0,0,0,0,0,0,0,0,0,0,0,0,0,0,0,0,0,0,0,0,0,0,0,0,0,0,0,0,0,0,0],"sum_hessian":[1.3041E4,9.451E3,3.59E3,3.825E3,5.626E3,8.83E2,2.707E3,2.211E3,1.614E3,2.663E3,2.963E3,7.23E2,1.6E2,1.781E3,9.26E2,8.42E2,1.369E3,8.73E2,7.41E2,1.798E3,8.65E2,2.208E3,7.55E2,4.35E2,2.88E2,1.55E2,5E0,1.468E3,3.13E2,3.9E2,5.36E2,7.2E1,7.7E2,6.86E2,6.83E2,8.12E2,6.1E1,6E1,6.81E2,4.42E2,1.356E3,2.77E2,5.88E2,3.68E2,1.84E3,5.12E2,2.43E2,3.96E2,3.9E1,1.64E2,1.24E2,1.08E2,4.7E1,4E0,1E0,6.53E2,8.15E2,2.23E2,9E1,2.46E2,1.44E2,3.96E2,1.4E2,7E0,6.5E1,7.67E2,3E0,6.48E2,3.8E1,6.1E1,6.22E2,4.57E2,3.55E2,1.5E1,4.6E1,3.5E1,2.5E1,5.65E2,1.16E2,1.32E2,3.1E2,5.13E2,8.43E2,2.71E2,6E0,1.02E2,4.86E2,2.05E2,1.63E2,1.202E3,6.38E2,5.1E2,2E0,1.2E1,2.31E2,2.44E2,1.52E2,7E0,3.2E1,6.6E1,9.8E1,1.16E2,8E0,1.9E1,8.9E1,2.1E1,2.6E1,4.6E2,1.93E2,7.41E2,7.4E1,1.93E2,3E1,3.6E1,5.4E1,2.17E2,2.9E1,1.03E2,4.1E1,1.79E2,2.17E2,1.34E2,6E0],"tree_param":{"num_deleted":"0","num_feature":"15","num_nodes":"123","size_leaf_vector":"1"}},{"base_weights":[8.4952393E-4,-1.6116728E-1,3.313697E-1,-4.0508133E-1,7.0872987E-3,-2.533788E-2,4.5230505E-1,-5.204094E-1,-3.0752072E-1,-9.751157E-2,1.12914436E-1,-1.2048189E-1,1.4165477E-1,3.4525272E-1,7.087229E-1,-6.318772E-1,-4.8071003E-1,-3.8095665E-1,-2.1538682E-1,-4.918849E-2,-2.2390941E-1,1.6600049E-1,-9.494752E-3,-1.8688732E-1,-3.188474E-3,7.416788E-2,3.766186E-1,3.872456E-1,1.5585025E-1,8.951306E-1,5.7200027E-1,-3.3200297E-1,-6.6947603E-1,-5.080387E-1,-2.949119E-1,-3.9586005E-1,-1.4914955E-1,-2.3682457E-1,1.0151863E-2,-2.2023459E-1,3.863096E-3,-3.2294035E-1,-1.7668882E-1,3.6094848E-2,2.1581167E-1,-2.2707215E-2,2.6937076E-1,-2.2025783E-1,1.1830401E-3,-1.0328568E-1,7.9396725E-2,-1.389437E-2,1.4996465E-1,2.2607626E-1,5.2540433E-1,4.7592136E-1,3.1200796E-1,1.20876946E-1,3.2014778E-1,7.937122E-1,1.1657475E0,4.6566832E-1,7.286173E-1,-9.001062E-3,-2.1530516E-2,-3.375295E-2,7.8572036E-4,-2.5569204E-2,1.4436713E-2,-2.0116115E-2,-9.524544E-3,-2.1251451E-2,-1.5028099E-2,-1.1211414E-2,-2.8575037E-3,-1.34678455E-2,-3.6170625E-3,4.8437337E-3,-6.1580758E-3,-3.6099514E-3,-1.3307209E-2,-1.1396561E-2,1.1801168E-3,-1.5541064E-2,-3.6078088E-2,-1.596515E-2,-7.692866E-3,-2.3495355E-3,6.1054556E-3,1.3389103E-2,4.4965665E-3,1.6779433E-3,-3.452665E-3,1.1095774E-2,2.9083515E-2,-1.4269635E-2,-8.845838E-3,-2.21298E-3,1.0657505E-2,2.7383806E-3,-6.496047E-3,2.541524E-3,1.2198389E-2,-2.6821734E-3,9.188692E-3,6.167702E-3,2.737163E-2,5.1609576E-3,1.74913E-2,2.2026837E-2,4.208165E-2,1.83805E-2,3.0289134E-2,1.2606094E-2,1.8966038E-2,4.5361794E-3,9.852554E-3,9.417291E-3,1.8774021E-2,4.258218E-2,2.68734E-2,5.3085793E-2,7.280902E-2,2.2186726E-2,3.231513E-2,3.4907654E-2,6.775531E-2],"categories":[],"categories_nodes":[],"categories_segments":[],"categories_sizes":[],"default_left":[0,0,0,0,0,0,0,0,0,0,0,0,0,0,0,0,0,0,0,0,0,0,0,0,0,0,0,0,0,0,0,0,0,0,0,0,0,0,0,0,0,0,0,0,0,0,0,0,0,0,0,0,0,0,0,0,0,0,0,0,0,0,0,0,0,0,0,0,0,0,0,0,0,0,0,0,0,0,0,0,0,0,0,0,0,0,0,0,0,0,0,0,0,0,0,0,0,0,0,0,0,0,0,0,0,0,0,0,0,0,0,0,0,0,0,0,0,0,0,0,0,0,0,0,0,0,0],"id":6,"left_children":[1,3,5,7,9,11,13,15,17,19,21,23,25,27,29,31,33,35,37,39,41,43,45,47,49,51,53,55,57,59,61,63,65,67,69,71,73,75,77,79,81,83,85,87,89,91,93,95,97,99,101,103,105,107,109,111,113,115,117,119,121,123,125,-1,-1,-1,-1,-1,-1,-1,-1,-1,-1,-1,-1,-1,-1,-1,-1,-1,-1,-1,-1,-1,-1,-1,-1,-1,-1,-1,-1,-1,-1,-1,-1,-1,-1,-1,-1,-1,-1,-1,-1,-1,-1,-1,-1,-1,-1,-1,-1,-1,-1,-1,-1,-1,-1,-1,-1,-1,-1,-1,-1,-1,-1,-1,-1],"loss_changes":[6.9122095E2,3.5548834E2,1.831778E2,3.9625183E1,5.6763817E1,1.7112932E1,8.679968E1,6.860626E0,1.2895004E1,1.5741344E1,1.6565536E1,5.3426037E0,6.1721463E0,1.774765E1,2.3266571E1,4.5357666E0,5.933136E0,3.623703E0,4.1266937E0,1.6942505E1,3.2771416E0,1.1497211E1,2.850551E0,2.7491484E0,2.0665708E0,2.037908E0,1.8298931E0,1.2074158E1,2.3056812E0,9.86084E0,8.670197E0,6.568208E-1,1.4413147E0,2.9277954E0,1.6730423E0,2.65477E0,4.4306087E-1,4.1489677E0,8.790295E-1,2.9847279E0,6.5299616E0,8.820019E-1,1.5300779E0,3.53613E0,8.38245E0,1.9268091E0,3.896277E-1,9.9967194E-1,6.5480095E-1,4.8282182E-1,6.3166034E-1,1.1255711E0,1.6670778E0,6.480503E-1,7.832451E-1,1.1578217E1,3.9112778E0,7.584772E-1,4.470787E-1,3.8323517E0,1.6264496E0,1.0008545E0,3.1954727E0,0E0,0E0,0E0,0E0,0E0,0E0,0E0,0E0,0E0,0E0,0E0,0E0,0E0,0E0,0E0,0E0,0E0,0E0,0E0,0E0,0E0,0E0,0E0,0E0,0E0,0E0,0E0,0E0,0E0,0E0,0E0,0E0,0E0,0E0,0E0,0E0,0E0,0E0,0E0,0E0,0E0,0E0,0E0,0E0,0E0,0E0,0E0,0E0,0E0,0E0,0E0,0E0,0E0,0E0,0E0,0E0,0E0,0E0,0E0,0E0,0E0,0E0,0E0,0E0],"parents":[2147483647,0,0,1,1,2,2,3,3,4,4,5,5,6,6,7,7,8,8,9,9,10,10,11,11,12,12,13,13,14,14,15,15,16,16,17,17,18,18,19,19,20,20,21,21,22,22,23,23,24,24,25,25,26,26,27,27,28,28,29,29,30,30,31,31,32,32,33,33,34,34,35,35,36,36,37,37,38,38,39,39,40,40,41,41,42,42,43,43,44,44,45,45,46,46,47,47,48,48,49,49,50,50,51,51,52,52,53,53,54,54,55,55,56,56,57,57,58,58,59,59,60,60,61,61,62,62],"right_children":[2,4,6,8,10,12,14,16,18,20,22,24,26,28,30,32,34,36,38,40,42,44,46,48,50,52,54,56,58,60,62,64,66,68,70,72,74,76,78,80,82,84,86,88,90,92,94,96,98,100,102,104,106,108,110,112,114,116,118,120,122,124,126,-1,-1,-1,-1,-1,-1,-1,-1,-1,-1,-1,-1,-1,-1,-1,-1,-1,-1,-1,-1,-1,-1,-1,-1,-1,-1,-1,-1,-1,-1,-1,-1,-1,-1,-1,-1,-1,-1,-1,-1,-1,-1,-1,-1,-1,-1,-1,-1,-1,-1,-1,-1,-1,-1,-1,-1,-1,-1,-1,-1,-1,-1,-1,-1],"split_conditions":[1.3972509E-1,-2.1250616E-1,-3.5057762E-1,-5.862012E-1,-5.0266993E-1,-3.0002559E-2,1.4205375E0,-1.0038574E0,-1.0633445E0,1.0301371E0,9.824265E-1,-9.25273E-1,2.004246E0,1.1494135E0,2.1411379E-1,-1.1136101E0,-3.7804735E-1,5.5811316E-1,1.0037102E0,4.7010373E-2,-8.924824E-1,9.7612485E-2,1.0037102E0,1.0088478E0,5.056715E-1,-1.2491266E0,-1.2729818E0,1.5700738E-1,9.273054E-1,2.8813398E0,2.364739E0,-1.1707165E0,5.237952E0,1.1934556E1,-2.1861477E-1,-9.197466E-2,-3.567747E-3,6.995182E-1,-2.1418424E-1,-1.1564399E0,-1.3486671E0,2.377019E0,-2.9021683E-1,-1.8246683E-1,3.497415E-1,1.2282082E0,4.9354267E0,-1.6206906E0,1.0037102E0,-9.422909E-1,1.4205375E0,4.9126005E0,4.9354267E0,4.496777E-1,3.6248546E0,6.170465E-1,7.2842145E-1,6.9854E-2,-3.3782095E-2,9.130293E-1,4.6205797E0,3.6248546E0,1.1934556E1,-9.001062E-3,-2.1530516E-2,-3.375295E-2,7.8572036E-4,-2.5569204E-2,1.4436713E-2,-2.0116115E-2,-9.524544E-3,-2.1251451E-2,-1.5028099E-2,-1.1211414E-2,-2.8575037E-3,-1.34678455E-2,-3.6170625E-3,4.8437337E-3,-6.1580758E-3,-3.6099514E-3,-1.3307209E-2,-1.1396561E-2,1.1801168E-3,-1.5541064E-2,-3.6078088E-2,-1.596515E-2,-7.692866E-3,-2.3495355E-3,6.1054556E-3,1.3389103E-2,4.4965665E-3,1.6779433E-3,-3.452665E-3,1.1095774E-2,2.9083515E-2,-1.4269635E-2,-8.845838E-3,-2.21298E-3,1.0657505E-2,2.7383806E-3,-6.496047E-3,2.541524E-3,1.2198389E-2,-2.6821734E-3,9.188692E-3,6.167702E-3,2.737163E-2,5.1609576E-3,1.74913E-2,2.2026837E-2,4.208165E-2,1.83805E-2,3.0289134E-2,1.2606094E-2,1.8966038E-2,4.5361794E-3,9.852554E-3,9.417291E-3,1.8774021E-2,4.258218E-2,2.68734E-2,5.3085793E-2,7.280902E-2,2.2186726E-2,3.231513E-2,3.4907654E-2,6.775531E-2],"split_indices":[13,11,11,13,13,3,13,13,11,11,11,11,6,11,12,12,11,3,8,11,13,11,8,13,13,11,11,12,13,13,13,12,3,7,3,13,2,12,12,12,2,12,3,13,12,11,8,11,8,12,13,3,8,12,8,13,13,3,10,11,13,8,7,0,0,0,0,0,0,0,0,0,0,0,0,0,0,0,0,0,0,0,0,0,0,0,0,0,0,0,0,0,0,0,0,0,0,0,0,0,0,0,0,0,0,0,0,0,0,0,0,0,0,0,0,0,0,0,0,0,0,0,0,0,0,0,0],"split_type":[0,0,0,0,0,0,0,0,0,0,0,0,0,0,0,0,0,0,0,0,0,0,0,0,0,0,0,0,0,0,0,0,0,0,0,0,0,0,0,0,0,0,0,0,0,0,0,0,0,0,0,0,0,0,0,0,0,0,0,0,0,0,0,0,0,0,0,0,0,0,0,0,0,0,0,0,0,0,0,0,0,0,0,0,0,0,0,0,0,0,0,0,0,0,0,0,0,0,0,0,0,0,0,0,0,0,0,0,0,0,0,0,0,0,0,0,0,0,0,0,0,0,0,0,0,0,0],"sum_hessian":[1.2906E4,8.661E3,4.245E3,3.535E3,5.126E3,1.075E3,3.17E3,1.618E3,1.917E3,2.578E3,2.548E3,6.85E2,3.9E2,2.238E3,9.32E2,4.21E2,1.197E3,1.065E3,8.52E2,1.866E3,7.12E2,1.777E3,7.71E2,4.37E2,2.48E2,3.04E2,8.6E1,1.831E3,4.07E2,3.92E2,5.4E2,4.8E1,3.73E2,1.042E3,1.55E2,1E3,6.5E1,7.78E2,7.4E1,4.41E2,1.425E3,2.28E2,4.84E2,4.93E2,1.284E3,7.37E2,3.4E1,3.71E2,6.6E1,1.12E2,1.36E2,1.41E2,1.63E2,4.4E1,4.2E1,8.38E2,9.93E2,3.37E2,7E1,2.88E2,1.04E2,3.24E2,2.16E2,2E1,2.8E1,3.7E2,3E0,1.038E3,4E0,7.5E1,8E1,7.63E2,2.37E2,3.5E1,3E1,6.49E2,1.29E2,4.5E1,2.9E1,1.05E2,3.36E2,1.11E2,1.314E3,2.23E2,5E0,6.5E1,4.19E2,2.51E2,2.42E2,9.08E2,3.76E2,3.33E2,4.04E2,3.1E1,3E0,1.46E2,2.25E2,5.5E1,1.1E1,1.6E1,9.6E1,1.17E2,1.9E1,1.18E2,2.3E1,1.54E2,9E0,2.3E1,2.1E1,3.5E1,7E0,4.59E2,3.79E2,5.28E2,4.65E2,2.43E2,9.4E1,2.2E1,4.8E1,2.33E2,5.5E1,8E1,2.4E1,2.92E2,3.2E1,2.08E2,8E0],"tree_param":{"num_deleted":"0","num_feature":"15","num_nodes":"127","size_leaf_vector":"1"}},{"base_weights":[-9.661169E-4,-1.0474297E-1,4.3313783E-1,-1.9531699E-1,6.0817868E-2,3.5112873E-1,7.537467E-1,-3.84392E-1,-1.4675348E-1,3.2639354E-2,2.906075E-1,2.5587463E-1,4.3785942E-1,9.496207E-1,6.0594296E-1,-4.6011078E-1,-2.8300038E-1,-4.872259E-2,-2.0892276E-1,-3.8619597E-2,9.026661E-2,2.4980558E-1,6.0449636E-1,2.4082015E-1,7.467595E-1,5.8381087E-1,3.558837E-1,7.724564E-1,1.1586745E0,4.881929E-1,7.6123554E-1,-2.267243E-1,-5.001692E-1,-1.7325684E-1,-3.4583324E-1,2.1897936E-2,-2.2006781E-1,-2.7326694E-1,-7.476771E-2,-4.7310054E-2,1.7947184E-1,4.5731813E-2,1.860795E-1,2.3051077E-1,5.672566E-1,5.07925E-1,8.3578825E-1,2.0750181E-1,3.669762E-1,5.1120603E-1,8.492221E-1,5.3985786E-1,7.4690366E-1,3.0831447E-1,4.2795888E-1,5.347696E-1,8.449381E-1,5.0772365E-2,6.46243E-2,4.479515E-1,6.416813E-1,6.7276144E-1,9.5347756E-1,-1.8707236E-2,-6.7006447E-3,-2.7984459E-2,-2.0429796E-2,-2.8549021E-2,-7.574752E-3,-2.0143276E-2,-1.0425995E-2,-9.916706E-3,3.1471837E-3,-1.3315292E-2,-4.8507317E-3,-1.4616362E-2,-6.580566E-3,-5.508268E-3,4.420701E-3,-2.688536E-3,1.0938934E-2,1.8930271E-2,4.2687464E-3,6.6350034E-4,6.5178103E-3,1.7818492E-2,6.882913E-3,1.6847303E-2,9.063867E-3,1.3251218E-2,3.9522223E-2,2.0000994E-2,3.0553048E-2,1.4182122E-2,4.589266E-2,9.044035E-3,1.9077798E-2,2.4711234E-2,1.1928998E-2,6.966424E-3,2.6723046E-2,4.3761533E-2,1.0176945E-2,2.0559883E-2,2.9887874E-2,4.9410155E-3,3.9053068E-2,1.3227996E-2,1.8019043E-2,2.0287864E-2,2.8846715E-2,3.590709E-2,1.7075676E-2,3.2293227E-2,4.761764E-2,1.8250335E-2,2.4406655E-2,3.6745E-2,1.768942E-2,7.881284E-3,3.3841204E-2,1.2495875E-2,4.830394E-2],"categories":[],"categories_nodes":[],"categories_segments":[],"categories_sizes":[],"default_left":[0,0,0,0,0,0,0,0,0,0,0,0,0,0,0,0,0,0,0,0,0,0,0,0,0,0,0,0,0,0,0,0,0,0,0,0,0,0,0,0,0,0,0,0,0,0,0,0,0,0,0,0,0,0,0,0,0,0,0,0,0,0,0,0,0,0,0,0,0,0,0,0,0,0,0,0,0,0,0,0,0,0,0,0,0,0,0,0,0,0,0,0,0,0,0,0,0,0,0,0,0,0,0,0,0,0,0,0,0,0,0,0,0,0,0,0,0,0,0,0,0,0,0],"id":7,"left_children":[1,3,5,7,9,11,13,15,17,19,21,23,25,27,29,31,33,35,37,39,41,43,45,47,49,51,53,55,57,59,61,63,65,67,69,71,73,75,77,79,81,83,85,87,89,91,93,95,97,99,101,103,105,107,109,111,113,-1,-1,115,117,119,121,-1,-1,-1,-1,-1,-1,-1,-1,-1,-1,-1,-1,-1,-1,-1,-1,-1,-1,-1,-1,-1,-1,-1,-1,-1,-1,-1,-1,-1,-1,-1,-1,-1,-1,-1,-1,-1,-1,-1,-1,-1,-1,-1,-1,-1,-1,-1,-1,-1,-1,-1,-1,-1,-1,-1,-1,-1,-1,-1,-1],"loss_changes":[5.867758E2,1.5764468E2,6.5809235E1,6.2336243E1,2.4065048E1,1.6435654E1,1.4218475E1,1.0525818E1,3.2948914E1,1.360818E1,5.048744E0,6.892399E0,1.2319031E1,7.1790314E0,5.0043716E0,7.3004303E0,4.0498047E0,2.5415852E1,2.8543182E1,2.8173468E0,7.808647E0,2.0804253E0,6.0294724E-1,3.8329315E0,2.4166393E-1,2.284935E0,2.175476E0,1.6327286E0,5.657654E-1,7.6257706E-1,1.4845886E0,1.5626316E0,3.4558105E0,1.8089833E0,2.8762207E0,1.3463389E1,3.4619713E0,5.9987335E0,6.2134323E0,2.4632144E0,1.0357345E0,3.4375904E0,4.7416763E0,1.7310581E0,1.1396046E0,1.4507484E-1,2.8339863E-1,3.3505154E0,3.035366E0,2.0662308E-2,1.2413502E-1,1.9815674E0,1.6273689E0,8.3641815E-1,6.423912E-1,8.5331726E-1,1.3308029E0,0E0,0E0,2.8176308E-1,6.256218E-1,7.9574585E-2,8.658981E-2,0E0,0E0,0E0,0E0,0E0,0E0,0E0,0E0,0E0,0E0,0E0,0E0,0E0,0E0,0E0,0E0,0E0,0E0,0E0,0E0,0E0,0E0,0E0,0E0,0E0,0E0,0E0,0E0,0E0,0E0,0E0,0E0,0E0,0E0,0E0,0E0,0E0,0E0,0E0,0E0,0E0,0E0,0E0,0E0,0E0,0E0,0E0,0E0,0E0,0E0,0E0,0E0,0E0,0E0,0E0,0E0,0E0,0E0,0E0,0E0],"parents":[2147483647,0,0,1,1,2,2,3,3,4,4,5,5,6,6,7,7,8,8,9,9,10,10,11,11,12,12,13,13,14,14,15,15,16,16,17,17,18,18,19,19,20,20,21,21,22,22,23,23,24,24,25,25,26,26,27,27,28,28,29,29,30,30,31,31,32,32,33,33,34,34,35,35,36,36,37,37,38,38,39,39,40,40,41,41,42,42,43,43,44,44,45,45,46,46,47,47,48,48,49,49,50,50,51,51,52,52,53,53,54,54,55,55,56,56,59,59,60,60,61,61,62,62],"right_children":[2,4,6,8,10,12,14,16,18,20,22,24,26,28,30,32,34,36,38,40,42,44,46,48,50,52,54,56,58,60,62,64,66,68,70,72,74,76,78,80,82,84,86,88,90,92,94,96,98,100,102,104,106,108,110,112,114,-1,-1,116,118,120,122,-1,-1,-1,-1,-1,-1,-1,-1,-1,-1,-1,-1,-1,-1,-1,-1,-1,-1,-1,-1,-1,-1,-1,-1,-1,-1,-1,-1,-1,-1,-1,-1,-1,-1,-1,-1,-1,-1,-1,-1,-1,-1,-1,-1,-1,-1,-1,-1,-1,-1,-1,-1,-1,-1,-1,-1,-1,-1,-1,-1],"split_conditions":[1.1502589E0,2.9627162E-1,1.9699798E0,-5.5771565E-1,1.0037102E0,8.6743927E-1,1.9269888E-1,-8.8449633E-1,-2.3583803E-1,-2.5618559E-2,1.3885517E0,4.9354267E0,1.4273077E-1,2.8582332E0,2.8582332E0,-1.0850569E0,-2.3583803E-1,-4.3547156E-1,-2.099143E-1,2.443727E0,9.088929E-1,1.1934556E1,2.283106E0,9.088929E-1,3.9334685E-1,3.6248546E0,2.004246E0,-6.2106735E-1,2.121793E0,2.3142824E0,3.7122207E0,-1.3684356E0,-1.0399559E0,-1.5140483E0,-2.2457913E-1,-3.1494272E-1,3.0335462E-1,-3.567747E-3,5.379918E-1,8.60618E-1,-2.8633344E-1,6.9103277E-1,-2.2039236E-1,-1.0850569E0,-1.0493654E0,3.6248546E0,3.9334685E-1,2.004246E0,9.9900976E-2,-3.3013886E-1,1.8284966E0,-7.852483E-1,6.87174E-2,1.5205352E0,2.5910676E0,-1.206408E0,2.004246E0,5.0772365E-2,6.46243E-2,2.004246E0,2.0198299E-1,-1.6591983E-1,-1.0927995E-1,-1.8707236E-2,-6.7006447E-3,-2.7984459E-2,-2.0429796E-2,-2.8549021E-2,-7.574752E-3,-2.0143276E-2,-1.0425995E-2,-9.916706E-3,3.1471837E-3,-1.3315292E-2,-4.8507317E-3,-1.4616362E-2,-6.580566E-3,-5.508268E-3,4.420701E-3,-2.688536E-3,1.0938934E-2,1.8930271E-2,4.2687464E-3,6.6350034E-4,6.5178103E-3,1.7818492E-2,6.882913E-3,1.6847303E-2,9.063867E-3,1.3251218E-2,3.9522223E-2,2.0000994E-2,3.0553048E-2,1.4182122E-2,4.589266E-2,9.044035E-3,1.9077798E-2,2.4711234E-2,1.1928998E-2,6.966424E-3,2.6723046E-2,4.3761533E-2,1.0176945E-2,2.0559883E-2,2.9887874E-2,4.9410155E-3,3.9053068E-2,1.3227996E-2,1.8019043E-2,2.0287864E-2,2.8846715E-2,3.590709E-2,1.7075676E-2,3.2293227E-2,4.761764E-2,1.8250335E-2,2.4406655E-2,3.6745E-2,1.768942E-2,7.881284E-3,3.3841204E-2,1.2495875E-2,4.830394E-2],"split_indices":[6,6,2,6,8,2,12,9,10,2,9,8,12,6,6,12,10,12,9,5,5,7,9,5,2,8,6,12,9,8,6,9,2,2,9,3,9,2,9,9,10,2,10,12,12,8,2,6,12,3,9,12,9,9,9,12,6,0,0,6,3,9,3,0,0,0,0,0,0,0,0,0,0,0,0,0,0,0,0,0,0,0,0,0,0,0,0,0,0,0,0,0,0,0,0,0,0,0,0,0,0,0,0,0,0,0,0,0,0,0,0,0,0,0,0,0,0,0,0,0,0,0,0],"split_type":[0,0,0,0,0,0,0,0,0,0,0,0,0,0,0,0,0,0,0,0,0,0,0,0,0,0,0,0,0,0,0,0,0,0,0,0,0,0,0,0,0,0,0,0,0,0,0,0,0,0,0,0,0,0,0,0,0,0,0,0,0,0,0,0,0,0,0,0,0,0,0,0,0,0,0,0,0,0,0,0,0,0,0,0,0,0,0,0,0,0,0,0,0,0,0,0,0,0,0,0,0,0,0,0,0,0,0,0,0,0,0,0,0,0,0,0,0,0,0,0,0,0,0],"sum_hessian":[1.3023E4,1.0511E4,2.512E3,6.794E3,3.717E3,2.002E3,5.1E2,1.387E3,5.407E3,3.312E3,4.05E2,9.56E2,1.046E3,2.17E2,2.93E2,7.92E2,5.95E2,2.099E3,3.308E3,1.481E3,1.831E3,3.6E2,4.5E1,9.29E2,2.7E1,3.74E2,6.72E2,1.2E2,9.7E1,1.69E2,1.24E2,1.17E2,6.75E2,2.18E2,3.77E2,1.487E3,6.12E2,2.235E3,1.073E3,1.425E3,5.6E1,1.251E3,5.8E2,3.41E2,1.9E1,3.4E1,1.1E1,7.37E2,1.92E2,1E1,1.7E1,2.98E2,7.6E1,4.08E2,2.64E2,3E1,9E1,5.1E1,4.6E1,1.37E2,3.2E1,8.8E1,3.6E1,4.4E1,7.3E1,4.06E2,2.69E2,1E1,2.08E2,2.65E2,1.12E2,2.33E2,1.254E3,4.44E2,1.68E2,1.969E3,2.66E2,8.82E2,1.91E2,1.392E3,3.3E1,1.7E1,3.9E1,9.05E2,3.46E2,1.27E2,4.53E2,1.06E2,2.35E2,9E0,1E1,1.9E1,1.5E1,2E0,9E0,6.41E2,9.6E1,9.5E1,9.7E1,1E0,9E0,1.6E1,1E0,9.5E1,2.03E2,4E0,7.2E1,2.25E2,1.83E2,2.33E2,3.1E1,1.4E1,1.6E1,3.4E1,5.6E1,4.8E1,8.9E1,2.3E1,9E0,1E0,8.7E1,1E0,3.5E1],"tree_param":{"num_deleted":"0","num_feature":"15","num_nodes":"123","size_leaf_vector":"1"}},{"base_weights":[2.541806E-3,-2.785481E-1,1.6396149E-1,-4.021527E-1,-6.375457E-2,8.142264E-3,4.2190453E-1,-4.896708E-1,-3.2487258E-1,-1.2903428E-1,1.6918689E-1,-1.12433955E-1,7.982867E-2,3.2595956E-1,6.5432835E-1,-5.6472605E-1,-4.4158646E-1,-3.8785952E-1,-2.5882393E-1,-2.1355285E-1,-2.2961134E-2,4.0550772E-2,2.6055607E-1,-7.08506E-2,-2.222942E-1,1.334752E-1,-2.085345E-2,3.685202E-1,1.421447E-1,8.2388717E-1,5.227524E-1,-5.738654E-1,-6.7219734E-2,-2.3191729E-1,-4.6536535E-1,1.2192472E-1,-3.9495936E-1,4.2384323E-2,-2.784988E-1,-2.5598148E-1,-6.629225E-2,-6.3508496E-2,1.2768698E-1,-1.7309198E-2,1.5027343E-1,1.6799153E-1,4.292907E-1,-1.9131559E-1,1.0411E-2,-3.215212E-1,-1.922481E-1,-2.3490084E-2,1.8293929E-1,-6.615669E-2,4.3966424E-2,4.525802E-1,2.916027E-1,9.685016E-2,2.2351013E-1,7.297788E-1,1.0190091E0,4.4966674E-1,6.938533E-1,-3.1720117E-2,-2.5737677E-2,1.1178565E-2,-1.021064E-2,8.276403E-3,-1.2376246E-2,-2.4920864E-2,-1.4799291E-2,1.1965901E-2,-4.514475E-3,-2.1320205E-2,-1.45656755E-2,-2.0159483E-3,9.352885E-3,-1.6477967E-2,-8.667026E-3,-1.5977468E-2,-1.0709665E-2,7.206138E-3,-4.7654207E-3,-5.644863E-3,1.6758078E-3,1.3772488E-2,3.982139E-3,-2.538186E-3,4.588791E-3,2.5198113E-3,1.4352093E-2,5.0522056E-3,1.2441693E-2,1.7168358E-2,2.939657E-2,-1.26126055E-2,-3.4374525E-3,1.762026E-3,-1.2845764E-2,-1.52991805E-2,-2.8416405E-2,-1.7140761E-2,-8.485756E-3,-5.682978E-3,3.6515964E-3,1.1268898E-2,3.7848484E-3,-1.0589065E-3,-5.6225006E-3,5.1430813E-3,-2.2384792E-4,1.8310634E-2,2.8752983E-2,1.227084E-2,1.7745493E-2,5.787811E-3,4.8017307E-4,1.2474344E-2,-3.1954647E-4,3.8683433E-2,1.9556275E-2,4.5342375E-2,6.1471056E-2,2.6165802E-2,2.0026611E-2,3.162073E-2,4.3385964E-2],"categories":[],"categories_nodes":[],"categories_segments":[],"categories_sizes":[],"default_left":[0,0,0,0,0,0,0,0,0,0,0,0,0,0,0,0,0,0,0,0,0,0,0,0,0,0,0,0,0,0,0,0,0,0,0,0,0,0,0,0,0,0,0,0,0,0,0,0,0,0,0,0,0,0,0,0,0,0,0,0,0,0,0,0,0,0,0,0,0,0,0,0,0,0,0,0,0,0,0,0,0,0,0,0,0,0,0,0,0,0,0,0,0,0,0,0,0,0,0,0,0,0,0,0,0,0,0,0,0,0,0,0,0,0,0,0,0,0,0,0,0,0,0,0,0,0,0],"id":8,"left_children":[1,3,5,7,9,11,13,15,17,19,21,23,25,27,29,31,33,35,37,39,41,43,45,47,49,51,53,55,57,59,61,63,65,67,69,71,73,75,77,79,81,83,85,87,89,91,93,95,97,99,101,103,105,107,109,111,113,115,117,119,121,123,125,-1,-1,-1,-1,-1,-1,-1,-1,-1,-1,-1,-1,-1,-1,-1,-1,-1,-1,-1,-1,-1,-1,-1,-1,-1,-1,-1,-1,-1,-1,-1,-1,-1,-1,-1,-1,-1,-1,-1,-1,-1,-1,-1,-1,-1,-1,-1,-1,-1,-1,-1,-1,-1,-1,-1,-1,-1,-1,-1,-1,-1,-1,-1,-1],"loss_changes":[5.9008185E2,1.2592502E2,3.3202667E2,2.0205566E1,2.638964E1,4.453255E1,6.916174E1,4.8392944E0,6.5642548E0,1.2142876E1,4.455717E0,8.760067E0,1.7454208E1,1.719014E1,1.982666E1,2.448578E0,4.1997223E0,3.008812E0,4.663891E0,4.6940727E0,3.6853564E0,1.0120203E0,3.3952646E0,1.3657894E1,1.5093765E0,1.6371117E1,3.3035915E0,1.143515E1,1.5114832E0,6.5095825E0,6.11557E0,1.5950775E0,4.8385602E-1,5.992584E-1,4.191162E0,3.2055822E-1,2.5058746E0,5.938253E-1,3.9001503E0,1.4855385E0,1.0516598E0,2.27995E0,8.867531E-1,3.8784447E-1,7.368369E-1,7.596235E-1,8.6133957E-1,4.1801147E0,5.544798E0,2.9011154E-1,1.3226585E0,4.41219E0,7.2785416E0,1.3760395E0,1.3214377E0,8.812653E0,2.652588E0,4.426012E-1,8.854618E-1,3.7105255E0,1.8587189E0,1.1039886E0,1.0749207E0,0E0,0E0,0E0,0E0,0E0,0E0,0E0,0E0,0E0,0E0,0E0,0E0,0E0,0E0,0E0,0E0,0E0,0E0,0E0,0E0,0E0,0E0,0E0,0E0,0E0,0E0,0E0,0E0,0E0,0E0,0E0,0E0,0E0,0E0,0E0,0E0,0E0,0E0,0E0,0E0,0E0,0E0,0E0,0E0,0E0,0E0,0E0,0E0,0E0,0E0,0E0,0E0,0E0,0E0,0E0,0E0,0E0,0E0,0E0,0E0,0E0,0E0,0E0,0E0],"parents":[2147483647,0,0,1,1,2,2,3,3,4,4,5,5,6,6,7,7,8,8,9,9,10,10,11,11,12,12,13,13,14,14,15,15,16,16,17,17,18,18,19,19,20,20,21,21,22,22,23,23,24,24,25,25,26,26,27,27,28,28,29,29,30,30,31,31,32,32,33,33,34,34,35,35,36,36,37,37,38,38,39,39,40,40,41,41,42,42,43,43,44,44,45,45,46,46,47,47,48,48,49,49,50,50,51,51,52,52,53,53,54,54,55,55,56,56,57,57,58,58,59,59,60,60,61,61,62,62],"right_children":[2,4,6,8,10,12,14,16,18,20,22,24,26,28,30,32,34,36,38,40,42,44,46,48,50,52,54,56,58,60,62,64,66,68,70,72,74,76,78,80,82,84,86,88,90,92,94,96,98,100,102,104,106,108,110,112,114,116,118,120,122,124,126,-1,-1,-1,-1,-1,-1,-1,-1,-1,-1,-1,-1,-1,-1,-1,-1,-1,-1,-1,-1,-1,-1,-1,-1,-1,-1,-1,-1,-1,-1,-1,-1,-1,-1,-1,-1,-1,-1,-1,-1,-1,-1,-1,-1,-1,-1,-1,-1,-1,-1,-1,-1,-1,-1,-1,-1,-1,-1,-1,-1,-1,-1,-1,-1],"split_conditions":[-2.2334947E-1,-1.1484631E-1,1.0790367E-1,-6.5581053E-1,9.273054E-1,-6.418887E-1,1.4205375E0,-1.2491266E0,-1.1761149E0,-9.925015E-1,-1.137079E0,1.0301371E0,9.354388E-1,1.1378473E0,2.1411379E-1,1.5357647E0,-1.0850569E0,-1.3348974E0,-1.1064718E0,-2.2352984E-2,-1.9153276E-2,2.004246E0,2.004246E0,3.0869555E-1,-1.0038574E0,4.7010373E-2,-2.6878247E-1,2.0697547E-1,7.045554E-1,-3.986716E-2,2.687428E0,-9.517526E-1,-3.9404923E-1,-1.4656515E0,3.711564E-1,4.4741324E-1,1.1563694E0,-3.125681E-1,3.497415E-1,-1.6206906E0,-7.495568E-1,5.9665114E-1,-9.708441E-1,1.2991354E0,4.496777E-1,-8.2879916E-2,2.8582332E0,9.088929E-1,6.923799E-1,1.6703271E0,-2.9279244E-1,-4.0691835E-1,3.85433E-1,1.2057986E0,1.1949553E0,5.0866216E-1,7.602429E-1,1.0424901E0,1.3705184E0,9.751976E-1,3.4232986E0,9.4222045E-1,3.7122207E0,-3.1720117E-2,-2.5737677E-2,1.1178565E-2,-1.021064E-2,8.276403E-3,-1.2376246E-2,-2.4920864E-2,-1.4799291E-2,1.1965901E-2,-4.514475E-3,-2.1320205E-2,-1.45656755E-2,-2.0159483E-3,9.352885E-3,-1.6477967E-2,-8.667026E-3,-1.5977468E-2,-1.0709665E-2,7.206138E-3,-4.7654207E-3,-5.644863E-3,1.6758078E-3,1.3772488E-2,3.982139E-3,-2.538186E-3,4.588791E-3,2.5198113E-3,1.4352093E-2,5.0522056E-3,1.2441693E-2,1.7168358E-2,2.939657E-2,-1.26126055E-2,-3.4374525E-3,1.762026E-3,-1.2845764E-2,-1.52991805E-2,-2.8416405E-2,-1.7140761E-2,-8.485756E-3,-5.682978E-3,3.6515964E-3,1.1268898E-2,3.7848484E-3,-1.0589065E-3,-5.6225006E-3,5.1430813E-3,-2.2384792E-4,1.8310634E-2,2.8752983E-2,1.227084E-2,1.7745493E-2,5.787811E-3,4.8017307E-4,1.2474344E-2,-3.1954647E-4,3.8683433E-2,1.9556275E-2,4.5342375E-2,6.1471056E-2,2.6165802E-2,2.0026611E-2,3.162073E-2,4.3385964E-2],"split_indices":[11,13,13,13,13,13,13,11,11,11,11,11,11,11,12,3,12,12,12,3,10,6,6,11,13,11,13,12,13,3,13,2,0,0,12,3,12,9,12,11,12,9,12,12,12,3,6,5,12,12,3,12,12,11,11,9,13,14,12,11,13,12,6,0,0,0,0,0,0,0,0,0,0,0,0,0,0,0,0,0,0,0,0,0,0,0,0,0,0,0,0,0,0,0,0,0,0,0,0,0,0,0,0,0,0,0,0,0,0,0,0,0,0,0,0,0,0,0,0,0,0,0,0,0,0,0,0],"split_type":[0,0,0,0,0,0,0,0,0,0,0,0,0,0,0,0,0,0,0,0,0,0,0,0,0,0,0,0,0,0,0,0,0,0,0,0,0,0,0,0,0,0,0,0,0,0,0,0,0,0,0,0,0,0,0,0,0,0,0,0,0,0,0,0,0,0,0,0,0,0,0,0,0,0,0,0,0,0,0,0,0,0,0,0,0,0,0,0,0,0,0,0,0,0,0,0,0,0,0,0,0,0,0,0,0,0,0,0,0,0,0,0,0,0,0,0,0,0,0,0,0,0,0,0,0,0,0],"sum_hessian":[1.3003E4,4.743E3,8.26E3,3.01E3,1.733E3,5.15E3,3.11E3,1.409E3,1.601E3,1.354E3,3.79E2,1.92E3,3.23E3,2.203E3,9.07E2,5.46E2,8.63E2,8.17E2,7.84E2,7.53E2,6.01E2,1.58E2,2.21E2,1.394E3,5.26E2,2.107E3,1.123E3,1.788E3,4.15E2,3.94E2,5.13E2,5.36E2,1E1,8.9E1,7.74E2,1.1E1,8.06E2,4.8E1,7.36E2,5.84E2,1.69E2,4.74E2,1.27E2,1.04E2,5.4E1,1.44E2,7.7E1,5.61E2,8.33E2,1.2E2,4.06E2,5.05E2,1.602E3,6.61E2,4.62E2,8.52E2,9.36E2,2.68E2,1.47E2,2.69E2,1.25E2,3.62E2,1.51E2,2.6E2,2.76E2,3E0,7E0,3E0,8.6E1,6.46E2,1.28E2,7E0,4E0,6.16E2,1.9E2,3.1E1,1.7E1,4.94E2,2.42E2,2.29E2,3.55E2,2E1,1.49E2,3.14E2,1.6E2,3E1,9.7E1,8E1,2.4E1,3.2E1,2.2E1,8E1,6.4E1,5.2E1,2.5E1,3.74E2,1.87E2,7.63E2,7E1,1.15E2,5E0,5.1E1,3.55E2,2.61E2,2.44E2,1.147E3,4.55E2,3.36E2,3.25E2,2.08E2,2.54E2,5.02E2,3.5E2,5.44E2,3.92E2,2.2E2,4.8E1,1.32E2,1.5E1,2.37E2,3.2E1,8.5E1,4E1,1.41E2,2.21E2,1.15E2,3.6E1],"tree_param":{"num_deleted":"0","num_feature":"15","num_nodes":"127","size_leaf_vector":"1"}},{"base_weights":[8.519698E-4,-2.6223895E-1,1.546435E-1,-3.5543856E-1,-5.4228385E-3,2.251496E-2,4.200599E-1,-4.2429188E-1,-2.4872532E-1,-6.134435E-2,2.2139148E-1,-5.4803293E-2,1.4073911E-1,3.51018E-1,7.07526E-1,-5.0213987E-1,-3.7733465E-1,-3.0502537E-1,-1.6579428E-1,-1.5279754E-1,4.5966696E-2,1.7566295E-1,4.6663547E-1,-1.4970416E-1,-5.3823898E-3,1.847326E-1,2.1571891E-2,2.7645272E-1,4.5439237E-1,6.8325007E-1,1.3180729E0,-5.37996E-1,-3.383304E-1,-4.2921358E-1,-3.0593002E-1,-3.2034352E-1,-8.6417906E-2,-2.0001736E-1,-6.577626E-2,-1.9797109E-1,-7.5637354E-3,2.9325092E-2,5.4991645E-1,8.443415E-2,2.5799245E-1,2.2868736E-1,5.768138E-1,-2.664639E-1,-1.1092863E-1,4.471925E-2,-9.752308E-2,7.192415E-2,2.2947219E-1,-2.948302E-2,6.304647E-2,3.2040074E-1,9.748337E-2,4.442134E-1,5.18437E-2,6.357526E-1,9.0837395E-1,6.755645E-2,1.8076634E-2,-2.7223647E-2,2.6132881E-3,-1.8315732E-2,-2.415674E-3,-2.247209E-2,-1.03471605E-2,-1.5886549E-2,-1.9395963E-3,-1.9938279E-2,-1.4346461E-2,-7.5476686E-3,1.262817E-3,-1.811748E-2,-8.94281E-3,-4.0461416E-3,2.4229228E-2,-1.2311828E-2,-6.5022237E-3,-1.2002653E-3,2.6228392E-2,-6.321927E-4,6.923891E-3,5.071497E-3,3.0555604E-2,1.3531337E-3,1.1156799E-2,1.1930351E-2,3.608736E-2,4.5217215E-3,1.7701054E-2,2.3769533E-2,3.7279613E-2,-2.9066358E-2,-1.2512845E-2,-3.4649242E-3,-1.0585152E-2,-6.1919615E-3,4.5937486E-3,-1.1474441E-2,-3.8780987E-3,-1.7699198E-3,6.9661713E-3,1.0895733E-2,2.1403098E-2,5.321299E-3,-2.0883658E-3,6.6381358E-3,1.0486818E-3,1.0095696E-2,1.7246146E-2,3.4810968E-3,9.712632E-3,2.3598062E-2,1.4212674E-2,3.340785E-2,2.4094347E-2,3.988288E-2,5.3514052E-2],"categories":[],"categories_nodes":[],"categories_segments":[],"categories_sizes":[],"default_left":[0,0,0,0,0,0,0,0,0,0,0,0,0,0,0,0,0,0,0,0,0,0,0,0,0,0,0,0,0,0,0,0,0,0,0,0,0,0,0,0,0,0,0,0,0,0,0,0,0,0,0,0,0,0,0,0,0,0,0,0,0,0,0,0,0,0,0,0,0,0,0,0,0,0,0,0,0,0,0,0,0,0,0,0,0,0,0,0,0,0,0,0,0,0,0,0,0,0,0,0,0,0,0,0,0,0,0,0,0,0,0,0,0,0,0,0,0,0,0,0,0],"id":9,"left_children":[1,3,5,7,9,11,13,15,17,19,21,23,25,27,29,31,33,35,37,39,41,43,45,47,49,51,53,55,57,59,61,63,65,67,69,71,73,75,77,79,81,83,85,87,89,91,93,95,97,99,101,103,105,107,109,111,113,115,-1,117,119,-1,-1,-1,-1,-1,-1,-1,-1,-1,-1,-1,-1,-1,-1,-1,-1,-1,-1,-1,-1,-1,-1,-1,-1,-1,-1,-1,-1,-1,-1,-1,-1,-1,-1,-1,-1,-1,-1,-1,-1,-1,-1,-1,-1,-1,-1,-1,-1,-1,-1,-1,-1,-1,-1,-1,-1,-1,-1,-1,-1],"loss_changes":[5.2393164E2,1.14336365E2,2.8657504E2,2.5647675E1,1.6160059E1,4.988952E1,5.3656616E1,7.5931396E0,6.3786697E0,1.0036867E1,2.7441216E0,1.5476479E1,1.1309509E1,1.677063E1,6.880768E0,4.5050964E0,4.802948E0,2.7148666E0,1.900259E0,3.6200237E0,3.9339304E0,1.5855327E0,8.90543E-1,5.086426E0,1.0026565E1,7.9375763E0,1.2363503E0,1.0004959E1,4.976349E0,4.8437653E0,1.1229324E-1,2.5249176E0,1.1672249E0,3.364502E0,1.7656822E0,1.890213E0,4.001948E-1,1.3642101E0,1.2396096E0,1.3482323E0,1.1674708E0,2.0952795E0,3.4969616E-1,8.1358683E-1,8.346753E-1,2.1057284E-1,9.0620995E-2,1.2884617E0,3.5512934E0,1.1194912E1,1.9973488E0,3.2527559E0,2.4957123E0,4.4186622E-1,9.416928E-1,2.905632E0,6.68597E-1,3.8738403E0,0E0,1.782074E0,6.878967E-1,0E0,0E0,0E0,0E0,0E0,0E0,0E0,0E0,0E0,0E0,0E0,0E0,0E0,0E0,0E0,0E0,0E0,0E0,0E0,0E0,0E0,0E0,0E0,0E0,0E0,0E0,0E0,0E0,0E0,0E0,0E0,0E0,0E0,0E0,0E0,0E0,0E0,0E0,0E0,0E0,0E0,0E0,0E0,0E0,0E0,0E0,0E0,0E0,0E0,0E0,0E0,0E0,0E0,0E0,0E0,0E0,0E0,0E0,0E0,0E0],"parents":[2147483647,0,0,1,1,2,2,3,3,4,4,5,5,6,6,7,7,8,8,9,9,10,10,11,11,12,12,13,13,14,14,15,15,16,16,17,17,18,18,19,19,20,20,21,21,22,22,23,23,24,24,25,25,26,26,27,27,28,28,29,29,30,30,31,31,32,32,33,33,34,34,35,35,36,36,37,37,38,38,39,39,40,40,41,41,42,42,43,43,44,44,45,45,46,46,47,47,48,48,49,49,50,50,51,51,52,52,53,53,54,54,55,55,56,56,57,57,59,59,60,60],"right_children":[2,4,6,8,10,12,14,16,18,20,22,24,26,28,30,32,34,36,38,40,42,44,46,48,50,52,54,56,58,60,62,64,66,68,70,72,74,76,78,80,82,84,86,88,90,92,94,96,98,100,102,104,106,108,110,112,114,116,-1,118,120,-1,-1,-1,-1,-1,-1,-1,-1,-1,-1,-1,-1,-1,-1,-1,-1,-1,-1,-1,-1,-1,-1,-1,-1,-1,-1,-1,-1,-1,-1,-1,-1,-1,-1,-1,-1,-1,-1,-1,-1,-1,-1,-1,-1,-1,-1,-1,-1,-1,-1,-1,-1,-1,-1,-1,-1,-1,-1,-1,-1],"split_conditions":[-2.2334947E-1,1.0790367E-1,2.3518938E-1,-4.290829E-1,1.1739215E0,-3.6941773E-1,1.9416133E0,-8.5071677E-1,-9.25273E-1,-9.925015E-1,2.687428E0,-8.159121E-1,1.0301371E0,9.273054E-1,1.1934556E1,-3.7804735E-1,-8.9997196E-1,6.4100003E-1,-3.7804735E-1,4.990663E-2,1.1934556E1,-1.0980431E0,-1.2924998E0,-1.1777928E0,9.491737E-1,9.7612485E-2,-1.2677935E-1,1.1725459E0,1.1934556E1,3.8439379E0,1.0156794E0,1.1934556E1,-1.02507845E-1,2.2448711E-1,5.0461763E-1,-1.6980395E0,-1.2924998E0,-4.7436723E-1,1.1934556E1,4.897608E-1,1.1934556E1,-4.9912054E-2,-4.0055704E-1,7.59964E-1,1.1934556E1,1.6085242E0,3.8439379E0,-1.2584288E0,9.889325E-1,3.8335726E-2,-3.3013886E-1,2.9627162E-1,9.0021306E-1,-3.9404923E-1,1.2282082E0,-5.7603964E-3,2.5964826E-1,1.062667E0,5.18437E-2,9.274871E-1,3.7122207E0,6.755645E-2,1.8076634E-2,-2.7223647E-2,2.6132881E-3,-1.8315732E-2,-2.415674E-3,-2.247209E-2,-1.03471605E-2,-1.5886549E-2,-1.9395963E-3,-1.9938279E-2,-1.4346461E-2,-7.5476686E-3,1.262817E-3,-1.811748E-2,-8.94281E-3,-4.0461416E-3,2.4229228E-2,-1.2311828E-2,-6.5022237E-3,-1.2002653E-3,2.6228392E-2,-6.321927E-4,6.923891E-3,5.071497E-3,3.0555604E-2,1.3531337E-3,1.1156799E-2,1.1930351E-2,3.608736E-2,4.5217215E-3,1.7701054E-2,2.3769533E-2,3.7279613E-2,-2.9066358E-2,-1.2512845E-2,-3.4649242E-3,-1.0585152E-2,-6.1919615E-3,4.5937486E-3,-1.1474441E-2,-3.8780987E-3,-1.7699198E-3,6.9661713E-3,1.0895733E-2,2.1403098E-2,5.321299E-3,-2.0883658E-3,6.6381358E-3,1.0486818E-3,1.0095696E-2,1.7246146E-2,3.4810968E-3,9.712632E-3,2.3598062E-2,1.4212674E-2,3.340785E-2,2.4094347E-2,3.988288E-2,5.3514052E-2],"split_indices":[11,13,13,13,13,13,13,13,11,11,13,13,11,13,7,11,11,10,11,10,7,11,11,9,11,11,13,11,7,13,11,7,10,10,3,11,11,1,7,13,7,3,9,3,7,9,13,13,11,11,3,6,9,0,11,11,10,11,0,11,6,0,0,0,0,0,0,0,0,0,0,0,0,0,0,0,0,0,0,0,0,0,0,0,0,0,0,0,0,0,0,0,0,0,0,0,0,0,0,0,0,0,0,0,0,0,0,0,0,0,0,0,0,0,0,0,0,0,0,0,0],"split_type":[0,0,0,0,0,0,0,0,0,0,0,0,0,0,0,0,0,0,0,0,0,0,0,0,0,0,0,0,0,0,0,0,0,0,0,0,0,0,0,0,0,0,0,0,0,0,0,0,0,0,0,0,0,0,0,0,0,0,0,0,0,0,0,0,0,0,0,0,0,0,0,0,0,0,0,0,0,0,0,0,0,0,0,0,0,0,0,0,0,0,0,0,0,0,0,0,0,0,0,0,0,0,0,0,0,0,0,0,0,0,0,0,0,0,0,0,0,0,0,0,0],"sum_hessian":[1.2947E4,4.776E3,8.171E3,3.504E3,1.272E3,5.456E3,2.715E3,2.128E3,1.376E3,1.021E3,2.51E2,3.299E3,2.157E3,2.191E3,5.24E2,7.97E2,1.331E3,8.18E2,5.58E2,5.51E2,4.7E2,2.13E2,3.8E1,1.129E3,2.17E3,1.575E3,5.82E2,1.275E3,9.16E2,5.06E2,1.8E1,6.52E2,1.45E2,7.68E2,5.63E2,7.64E2,5.4E1,4.15E2,1.43E2,4.2E2,1.31E2,4.56E2,1.4E1,1.02E2,1.11E2,1.3E1,2.5E1,2.8E2,8.49E2,1.406E3,7.64E2,4.48E2,1.127E3,2.61E2,3.21E2,1.023E3,2.52E2,9.02E2,1.4E1,4.21E2,8.5E1,1.7E1,1E0,6.45E2,7E0,1.32E2,1.3E1,7.03E2,6.5E1,5.39E2,2.4E1,2.25E2,5.39E2,3.4E1,2E1,4.6E1,3.69E2,1.4E2,3E0,2.44E2,1.76E2,1.28E2,3E0,3.3E2,1.26E2,2E0,1.2E1,7.3E1,2.9E1,1.08E2,3E0,7E0,6E0,1.8E1,7E0,1.2E1,2.68E2,6.02E2,2.47E2,3.07E2,1.099E3,9.9E1,6.65E2,1.73E2,2.75E2,1.067E3,6E1,2.1E1,2.4E2,1.2E2,2.01E2,1.77E2,8.46E2,1.97E2,5.5E1,7.67E2,1.35E2,3.45E2,7.6E1,5.4E1,3.1E1],"tree_param":{"num_deleted":"0","num_feature":"15","num_nodes":"121","size_leaf_vector":"1"}},{"base_weights":[-1.5255609E-3,-9.2693E-2,3.7733853E-1,-1.7092194E-1,5.168919E-2,3.09159E-1,6.4409137E-1,-3.3536643E-1,-1.2819153E-1,2.6920334E-2,2.562933E-1,2.828178E-1,5.800937E-1,5.35585E-1,7.819551E-1,-4.0426058E-1,-2.4689959E-1,-3.866598E-2,-1.7923652E-1,-3.1003615E-2,8.773631E-2,2.1293522E-1,4.6166325E-1,1.9529985E-1,3.4168074E-1,5.234674E-1,9.34022E-1,4.9111518E-1,7.4246585E-1,7.5398153E-1,1.2499954E0,-5.9120303E-1,-3.793631E-1,-1.2972258E-1,-2.8879505E-1,2.6290407E-2,-1.4223334E-1,-2.3284197E-1,-6.6862054E-2,-3.986888E-2,1.8545622E-1,4.924887E-2,1.6866648E-1,1.9343385E-1,4.8881558E-1,3.356225E-1,6.0127246E-1,1.763124E-1,3.6507216E-1,2.976186E-1,4.2266324E-1,4.2801732E-1,6.7407423E-1,6.874919E-3,4.8198886E-2,3.8714296E-1,5.4068166E-1,7.763374E-1,1.44564435E-2,3.2818135E-2,8.4190744E-1,1.7624712E-2,6.5224804E-2,3.1733513E-4,-3.0242791E-2,-1.5837794E-2,-2.2017023E-2,-2.7177153E-2,-5.794675E-3,-1.5550668E-2,-2.6640904E-3,-8.0938917E-4,6.280452E-3,-1.02272695E-2,-1.0114087E-3,-1.2713279E-2,-6.5390593E-3,-5.066644E-3,2.215251E-3,-1.236196E-2,-1.5974854E-3,1.6746435E-2,5.6593562E-3,1.7531356E-3,1.18190395E-2,1.5713854E-2,6.3606733E-3,1.3252281E-2,5.811792E-3,2.8140059E-2,6.975069E-3,1.835989E-2,2.689295E-3,1.221625E-3,3.20106E-2,1.2359492E-2,7.179785E-3,1.8860778E-2,3.0647516E-3,1.3542801E-2,2.0564249E-2,2.8602142E-2,1.9730896E-2,1.7316395E-2,3.247149E-2,3.85133E-2,2.5814524E-2,1.4110036E-2,2.2852717E-2,-8.578825E-3,2.7312016E-2,2.7641067E-2,4.2493254E-2,3.876189E-2,5.1612057E-2],"categories":[],"categories_nodes":[],"categories_segments":[],"categories_sizes":[],"default_left":[0,0,0,0,0,0,0,0,0,0,0,0,0,0,0,0,0,0,0,0,0,0,0,0,0,0,0,0,0,0,0,0,0,0,0,0,0,0,0,0,0,0,0,0,0,0,0,0,0,0,0,0,0,0,0,0,0,0,0,0,0,0,0,0,0,0,0,0,0,0,0,0,0,0,0,0,0,0,0,0,0,0,0,0,0,0,0,0,0,0,0,0,0,0,0,0,0,0,0,0,0,0,0,0,0,0,0,0,0,0,0,0,0,0,0],"id":10,"left_children":[1,3,5,7,9,11,13,15,17,19,21,23,25,27,29,31,33,35,37,39,41,43,45,47,49,51,53,55,57,59,61,63,65,67,69,71,73,75,77,79,81,83,85,87,89,91,93,95,97,99,101,103,105,-1,-1,107,109,111,-1,-1,113,-1,-1,-1,-1,-1,-1,-1,-1,-1,-1,-1,-1,-1,-1,-1,-1,-1,-1,-1,-1,-1,-1,-1,-1,-1,-1,-1,-1,-1,-1,-1,-1,-1,-1,-1,-1,-1,-1,-1,-1,-1,-1,-1,-1,-1,-1,-1,-1,-1,-1,-1,-1,-1,-1],"loss_changes":[4.4608542E2,1.1758838E2,4.5359528E1,4.740181E1,1.8536217E1,1.4088013E1,7.1953735E0,8.384232E0,2.4491936E1,1.1504339E1,3.418953E0,9.319412E0,3.0383987E0,2.2849503E0,1.9641113E0,3.41082E0,2.9669533E0,1.3108641E1,2.0549957E1,3.217837E0,4.953562E0,1.6701012E0,9.9475765E-1,2.3049374E0,3.7564926E0,1.9253044E0,4.162445E-1,1.0275269E0,5.279465E-1,1.2670517E0,7.823181E-2,7.380829E-1,2.502304E0,8.698168E-1,2.33815E0,5.0562463E0,5.7052593E0,5.0197678E0,4.2350407E0,2.6327605E0,6.750381E-1,2.861424E0,3.056487E0,1.6719036E0,4.6421766E-1,3.184147E-1,6.8067646E-1,1.5019226E0,2.4616623E-1,2.0423355E0,1.3704224E0,1.5295296E0,4.826126E-1,0E0,0E0,4.6528816E-1,7.2719955E-1,2.6973343E-1,0E0,0E0,5.702286E-1,0E0,0E0,0E0,0E0,0E0,0E0,0E0,0E0,0E0,0E0,0E0,0E0,0E0,0E0,0E0,0E0,0E0,0E0,0E0,0E0,0E0,0E0,0E0,0E0,0E0,0E0,0E0,0E0,0E0,0E0,0E0,0E0,0E0,0E0,0E0,0E0,0E0,0E0,0E0,0E0,0E0,0E0,0E0,0E0,0E0,0E0,0E0,0E0,0E0,0E0,0E0,0E0,0E0,0E0],"parents":[2147483647,0,0,1,1,2,2,3,3,4,4,5,5,6,6,7,7,8,8,9,9,10,10,11,11,12,12,13,13,14,14,15,15,16,16,17,17,18,18,19,19,20,20,21,21,22,22,23,23,24,24,25,25,26,26,27,27,28,28,29,29,30,30,31,31,32,32,33,33,34,34,35,35,36,36,37,37,38,38,39,39,40,40,41,41,42,42,43,43,44,44,45,45,46,46,47,47,48,48,49,49,50,50,51,51,52,52,55,55,56,56,57,57,60,60],"right_children":[2,4,6,8,10,12,14,16,18,20,22,24,26,28,30,32,34,36,38,40,42,44,46,48,50,52,54,56,58,60,62,64,66,68,70,72,74,76,78,80,82,84,86,88,90,92,94,96,98,100,102,104,106,-1,-1,108,110,112,-1,-1,114,-1,-1,-1,-1,-1,-1,-1,-1,-1,-1,-1,-1,-1,-1,-1,-1,-1,-1,-1,-1,-1,-1,-1,-1,-1,-1,-1,-1,-1,-1,-1,-1,-1,-1,-1,-1,-1,-1,-1,-1,-1,-1,-1,-1,-1,-1,-1,-1,-1,-1,-1,-1,-1,-1],"split_conditions":[1.1502589E0,2.9627162E-1,1.9699798E0,-5.5771565E-1,1.0037102E0,3.6248546E0,2.8582332E0,-8.8449633E-1,-2.4809058E-1,5.155928E-2,1.1245849E0,7.571852E-1,1.1934556E1,3.6248546E0,1.1934556E1,-1.4117029E0,-2.6494715E-1,9.229146E-1,-2.099143E-1,2.443727E0,9.088929E-1,1.1934556E1,3.6248546E0,1.0037102E0,1.1592686E0,2.004246E0,-1.4593152E-2,2.004246E0,5.352938E-1,6.5491396E-1,-1.9749473E-1,-3.7544298E-1,-2.2039236E-1,-2.001818E0,1.0037102E0,-4.1522187E-1,-1.138218E-1,-1.6784629E-1,4.3533805E-1,-1.0399559E0,-2.8633344E-1,1.2753793E0,-2.2503349E-1,-1.8731044E-1,6.4100003E-1,8.3254147E-1,-1.1278216E0,-2.6123425E-1,3.26072E-1,9.088929E-1,-2.9279387E-1,1.6085242E0,-1.0657556E-1,6.874919E-3,4.8198886E-2,1.3005629E0,-3.0567053E-1,2.004246E0,1.44564435E-2,3.2818135E-2,3.7122207E0,1.7624712E-2,6.5224804E-2,3.1733513E-4,-3.0242791E-2,-1.5837794E-2,-2.2017023E-2,-2.7177153E-2,-5.794675E-3,-1.5550668E-2,-2.6640904E-3,-8.0938917E-4,6.280452E-3,-1.02272695E-2,-1.0114087E-3,-1.2713279E-2,-6.5390593E-3,-5.066644E-3,2.215251E-3,-1.236196E-2,-1.5974854E-3,1.6746435E-2,5.6593562E-3,1.7531356E-3,1.18190395E-2,1.5713854E-2,6.3606733E-3,1.3252281E-2,5.811792E-3,2.8140059E-2,6.975069E-3,1.835989E-2,2.689295E-3,1.221625E-3,3.20106E-2,1.2359492E-2,7.179785E-3,1.8860778E-2,3.0647516E-3,1.3542801E-2,2.0564249E-2,2.8602142E-2,1.9730896E-2,1.7316395E-2,3.247149E-2,3.85133E-2,2.5814524E-2,1.4110036E-2,2.2852717E-2,-8.578825E-3,2.7312016E-2,2.7641067E-2,4.2493254E-2,3.876189E-2,5.1612057E-2],"split_indices":[6,6,2,6,8,8,6,9,10,2,9,2,7,8,7,6,10,4,9,5,5,7,8,8,1,6,2,6,10,14,3,10,10,14,8,9,2,2,9,2,10,2,10,10,10,1,1,10,10,5,10,9,3,0,0,9,3,6,0,0,6,0,0,0,0,0,0,0,0,0,0,0,0,0,0,0,0,0,0,0,0,0,0,0,0,0,0,0,0,0,0,0,0,0,0,0,0,0,0,0,0,0,0,0,0,0,0,0,0,0,0,0,0,0,0],"split_type":[0,0,0,0,0,0,0,0,0,0,0,0,0,0,0,0,0,0,0,0,0,0,0,0,0,0,0,0,0,0,0,0,0,0,0,0,0,0,0,0,0,0,0,0,0,0,0,0,0,0,0,0,0,0,0,0,0,0,0,0,0,0,0,0,0,0,0,0,0,0,0,0,0,0,0,0,0,0,0,0,0,0,0,0,0,0,0,0,0,0,0,0,0,0,0,0,0,0,0,0,0,0,0,0,0,0,0,0,0,0,0,0,0,0,0],"sum_hessian":[1.2913E4,1.0409E4,2.504E3,6.751E3,3.658E3,1.996E3,5.08E2,1.391E3,5.36E3,3.264E3,3.94E2,1.821E3,1.75E2,2.87E2,2.21E2,7.8E2,6.11E2,1.947E3,3.413E3,1.672E3,1.592E3,3.27E2,6.7E1,7.34E2,1.087E3,1.53E2,2.2E1,2.39E2,4.8E1,2.11E2,1E1,8.9E1,6.91E2,1.62E2,4.49E2,1.197E3,7.5E2,2.31E3,1.103E3,1.607E3,6.5E1,1.08E3,5.12E2,3.07E2,2E1,3.7E1,3E1,6.62E2,7.2E1,7.07E2,3.8E2,9.6E1,5.7E1,1E0,2.1E1,8E1,1.59E2,4.4E1,4E0,1.04E2,1.07E2,1E0,9E0,2E0,8.7E1,3.44E2,3.47E2,4E0,1.58E2,4.1E2,3.9E1,8.39E2,3.58E2,4.96E2,2.54E2,1.908E3,4.02E2,8.42E2,2.61E2,5.8E1,1.549E3,2E1,4.5E1,1.005E3,7.5E1,1.12E2,4E2,1.58E2,1.49E2,1.6E1,4E0,3.3E1,4E0,2E0,2.8E1,2.07E2,4.55E2,6.9E1,3E0,5.75E2,1.32E2,5.7E1,3.23E2,7.2E1,2.4E1,3.3E1,2.4E1,3.4E1,4.6E1,1E0,1.58E2,1.3E1,3.1E1,8.3E1,2.4E1],"tree_param":{"num_deleted":"0","num_feature":"15","num_nodes":"115","size_leaf_vector":"1"}},{"base_weights":[-2.4888187E-4,-2.3992833E-1,1.4998895E-1,-3.4044987E-1,-4.0789276E-2,9.050479E-3,3.5344818E-1,-4.2675185E-1,-2.766107E-1,-9.808968E-2,1.7082174E-1,-7.889127E-2,7.465133E-2,2.52211E-1,5.2699226E-1,-2.2195421E-1,-4.4713786E-1,-3.0688688E-1,-1.1582354E-1,-1.812683E-1,3.0380597E-3,9.19829E-2,3.662441E-1,-3.126842E-2,-1.7359276E-1,1.2765294E-1,-2.0256704E-2,2.9526857E-1,1.0297062E-1,6.805046E-1,4.1209683E-1,-2.7955307E-2,-1.6926804E-1,-4.8753542E-1,-3.668987E-1,-3.260262E-1,-1.2241486E-1,1.16705716E-1,-1.427541E-1,-2.037475E-1,7.44091E-2,-1.695145E-2,2.8031653E-1,4.389378E-2,2.9325768E-1,1.8028903E-1,5.0420505E-1,-1.794921E-1,2.0013826E-2,-2.3424642E-1,-1.3406944E-1,7.36648E-4,1.7265177E-1,2.183981E-2,-6.691464E-2,3.5172886E-1,2.0758107E-1,8.483209E-2,2.5037274E-1,5.6941426E-1,8.2907474E-1,3.5514122E-1,6.132506E-1,-9.904981E-3,3.387587E-3,-3.0320466E-2,-2.2722358E-2,-2.0972664E-2,-1.2673931E-2,-2.0788882E-2,-1.5036429E-2,-1.0729518E-2,-2.4590143E-3,7.1719363E-3,-9.476312E-3,-1.2275121E-2,-1.5959371E-3,-1.0624078E-2,3.0194803E-3,1.0699622E-3,9.244126E-3,-3.513076E-3,2.2568367E-3,1.93673E-2,2.6940005E-3,1.6466519E-3,2.0279495E-2,1.0255108E-2,2.2356637E-2,1.0597515E-2,-1.0932514E-3,2.1907477E-2,3.733053E-2,-2.3231576E-3,-1.1587887E-2,-1.5495459E-2,1.6380938E-3,-1.1265588E-2,-3.2510635E-2,-1.1589858E-2,-5.743691E-3,-2.9746525E-3,4.4798055E-3,1.0560024E-2,3.275241E-3,-6.1240713E-3,2.5806017E-3,-3.8583514E-3,6.0635447E-3,1.442426E-2,2.2518426E-2,1.1240798E-2,2.0625847E-3,3.0097328E-3,8.808829E-3,1.45036355E-2,3.128276E-3,3.0823246E-2,1.3144689E-2,3.8596105E-2,5.3433347E-2,1.6815586E-2,2.845265E-2,2.7517844E-2,4.0978003E-2],"categories":[],"categories_nodes":[],"categories_segments":[],"categories_sizes":[],"default_left":[0,0,0,0,0,0,0,0,0,0,0,0,0,0,0,0,0,0,0,0,0,0,0,0,0,0,0,0,0,0,0,0,0,0,0,0,0,0,0,0,0,0,0,0,0,0,0,0,0,0,0,0,0,0,0,0,0,0,0,0,0,0,0,0,0,0,0,0,0,0,0,0,0,0,0,0,0,0,0,0,0,0,0,0,0,0,0,0,0,0,0,0,0,0,0,0,0,0,0,0,0,0,0,0,0,0,0,0,0,0,0,0,0,0,0,0,0,0,0,0,0,0,0,0,0],"id":11,"left_children":[1,3,5,7,9,11,13,15,17,19,21,23,25,27,29,31,33,35,37,39,41,43,45,47,49,51,53,55,57,59,61,-1,63,65,67,69,71,73,75,77,79,81,83,85,87,89,91,93,95,97,99,101,103,105,107,109,111,113,115,117,119,121,123,-1,-1,-1,-1,-1,-1,-1,-1,-1,-1,-1,-1,-1,-1,-1,-1,-1,-1,-1,-1,-1,-1,-1,-1,-1,-1,-1,-1,-1,-1,-1,-1,-1,-1,-1,-1,-1,-1,-1,-1,-1,-1,-1,-1,-1,-1,-1,-1,-1,-1,-1,-1,-1,-1,-1,-1,-1,-1,-1,-1,-1,-1],"loss_changes":[4.6465912E2,9.9514404E1,2.2744875E2,1.8085205E1,2.0254044E1,2.7045444E1,5.6896423E1,5.7582855E0,9.223434E0,1.1053479E1,5.4511585E0,9.028009E0,1.3508884E1,1.3155594E1,2.0796844E1,2.1968193E0,3.9540253E0,5.609146E0,1.9140897E0,4.15905E0,3.2970922E0,2.455305E0,2.5258589E0,1.014365E1,1.5747414E0,9.840071E0,1.8929247E0,7.8087463E0,1.2113171E0,7.9453125E0,7.641594E0,0E0,7.8562427E-1,3.0480652E0,2.462757E0,3.1649323E0,1.015512E0,2.8915346E-1,3.0897393E0,1.5423679E0,3.4155828E-1,1.8401802E0,9.48545E-1,8.0728567E-1,5.729742E-1,2.9265463E-1,6.015825E-1,2.3740568E0,4.1823816E0,8.309431E-1,7.3875713E-1,2.4244244E0,5.2400017E0,2.184781E0,8.9107203E-1,5.9025497E0,1.7852612E0,9.165983E-1,3.5464883E-1,4.0924225E0,2.132843E0,1.9715729E0,1.495285E0,0E0,0E0,0E0,0E0,0E0,0E0,0E0,0E0,0E0,0E0,0E0,0E0,0E0,0E0,0E0,0E0,0E0,0E0,0E0,0E0,0E0,0E0,0E0,0E0,0E0,0E0,0E0,0E0,0E0,0E0,0E0,0E0,0E0,0E0,0E0,0E0,0E0,0E0,0E0,0E0,0E0,0E0,0E0,0E0,0E0,0E0,0E0,0E0,0E0,0E0,0E0,0E0,0E0,0E0,0E0,0E0,0E0,0E0,0E0,0E0,0E0,0E0],"parents":[2147483647,0,0,1,1,2,2,3,3,4,4,5,5,6,6,7,7,8,8,9,9,10,10,11,11,12,12,13,13,14,14,15,15,16,16,17,17,18,18,19,19,20,20,21,21,22,22,23,23,24,24,25,25,26,26,27,27,28,28,29,29,30,30,32,32,33,33,34,34,35,35,36,36,37,37,38,38,39,39,40,40,41,41,42,42,43,43,44,44,45,45,46,46,47,47,48,48,49,49,50,50,51,51,52,52,53,53,54,54,55,55,56,56,57,57,58,58,59,59,60,60,61,61,62,62],"right_children":[2,4,6,8,10,12,14,16,18,20,22,24,26,28,30,32,34,36,38,40,42,44,46,48,50,52,54,56,58,60,62,-1,64,66,68,70,72,74,76,78,80,82,84,86,88,90,92,94,96,98,100,102,104,106,108,110,112,114,116,118,120,122,124,-1,-1,-1,-1,-1,-1,-1,-1,-1,-1,-1,-1,-1,-1,-1,-1,-1,-1,-1,-1,-1,-1,-1,-1,-1,-1,-1,-1,-1,-1,-1,-1,-1,-1,-1,-1,-1,-1,-1,-1,-1,-1,-1,-1,-1,-1,-1,-1,-1,-1,-1,-1,-1,-1,-1,-1,-1,-1,-1,-1,-1,-1],"split_conditions":[-1.8937376E-1,-4.3248102E-2,2.8350106E-2,-6.766934E-1,1.0088478E0,-6.07084E-1,1.0893958E0,-1.0993335E0,-4.0623996E-1,-9.925015E-1,-4.3660122E-1,9.824265E-1,9.354388E-1,1.1277268E0,2.1411379E-1,-1.7356297E0,2.3552868E-1,1.7859642E-1,-1.1849931E0,1.0419165E0,3.6248546E0,1.2091477E0,-1.4721875E-1,7.37572E-2,-8.924824E-1,9.7612485E-2,1.2282082E0,4.925075E-1,1.0037102E0,2.0201726E0,2.687428E0,-2.7955307E-2,2.3142824E0,-1.0913663E0,-6.599734E-1,-1.6980395E0,-1.3937039E0,5.5121485E-2,-2.4273744E-1,3.6248546E0,5.434594E-1,5.0866216E-1,-2.7842894E-1,4.9354267E0,2.2399392E0,1.8681729E0,3.6248546E0,-1.1564399E0,-1.1868306E0,2.377019E0,-2.9279244E-1,-2.5390878E-1,3.497415E-1,-3.1692773E-1,4.4741324E-1,5.23327E-1,1.8202313E0,2.2448711E-1,-3.3553535E-1,1.0301371E0,3.8439379E0,3.6248546E0,3.6248546E0,-9.904981E-3,3.387587E-3,-3.0320466E-2,-2.2722358E-2,-2.0972664E-2,-1.2673931E-2,-2.0788882E-2,-1.5036429E-2,-1.0729518E-2,-2.4590143E-3,7.1719363E-3,-9.476312E-3,-1.2275121E-2,-1.5959371E-3,-1.0624078E-2,3.0194803E-3,1.0699622E-3,9.244126E-3,-3.513076E-3,2.2568367E-3,1.93673E-2,2.6940005E-3,1.6466519E-3,2.0279495E-2,1.0255108E-2,2.2356637E-2,1.0597515E-2,-1.0932514E-3,2.1907477E-2,3.733053E-2,-2.3231576E-3,-1.1587887E-2,-1.5495459E-2,1.6380938E-3,-1.1265588E-2,-3.2510635E-2,-1.1589858E-2,-5.743691E-3,-2.9746525E-3,4.4798055E-3,1.0560024E-2,3.275241E-3,-6.1240713E-3,2.5806017E-3,-3.8583514E-3,6.0635447E-3,1.442426E-2,2.2518426E-2,1.1240798E-2,2.0625847E-3,3.0097328E-3,8.808829E-3,1.45036355E-2,3.128276E-3,3.0823246E-2,1.3144689E-2,3.8596105E-2,5.3433347E-2,1.6815586E-2,2.845265E-2,2.7517844E-2,4.0978003E-2],"split_indices":[11,13,13,13,13,13,13,12,11,11,11,11,11,11,12,11,12,3,12,3,8,10,3,11,13,11,11,12,8,13,13,0,8,13,11,11,11,3,12,8,13,9,12,8,13,14,8,12,13,12,3,9,12,10,3,9,12,10,12,11,13,8,8,0,0,0,0,0,0,0,0,0,0,0,0,0,0,0,0,0,0,0,0,0,0,0,0,0,0,0,0,0,0,0,0,0,0,0,0,0,0,0,0,0,0,0,0,0,0,0,0,0,0,0,0,0,0,0,0,0,0,0,0,0,0],"split_type":[0,0,0,0,0,0,0,0,0,0,0,0,0,0,0,0,0,0,0,0,0,0,0,0,0,0,0,0,0,0,0,0,0,0,0,0,0,0,0,0,0,0,0,0,0,0,0,0,0,0,0,0,0,0,0,0,0,0,0,0,0,0,0,0,0,0,0,0,0,0,0,0,0,0,0,0,0,0,0,0,0,0,0,0,0,0,0,0,0,0,0,0,0,0,0,0,0,0,0,0,0,0,0,0,0,0,0,0,0,0,0,0,0,0,0,0,0,0,0,0,0,0,0,0,0],"sum_hessian":[1.2902E4,4.971E3,7.931E3,3.303E3,1.668E3,4.686E3,3.245E3,1.402E3,1.901E3,1.313E3,3.55E2,2.002E3,2.684E3,2.051E3,1.194E3,1.28E2,1.274E3,1.599E3,3.02E2,7.2E2,5.93E2,2.54E2,1.01E2,1.333E3,6.69E2,1.722E3,9.62E2,1.591E3,4.6E2,5.09E2,6.85E2,1.6E1,1.12E2,8.44E2,4.3E2,1.448E3,1.51E2,3.1E1,2.71E2,6.62E2,5.8E1,5.54E2,3.9E1,2.06E2,4.8E1,4.4E1,5.7E1,3.42E2,9.91E2,2.62E2,4.07E2,4.51E2,1.271E3,5.06E2,4.56E2,9.66E2,6.25E2,4.11E2,4.9E1,2.94E2,2.15E2,5.36E2,1.49E2,1E2,1.2E1,1.8E2,6.64E2,2.92E2,1.38E2,3.15E2,1.133E3,6.6E1,8.5E1,2.9E1,2E0,1.4E2,1.31E2,6.41E2,2.1E1,4E1,1.8E1,2.98E2,2.56E2,2.6E1,1.3E1,2.01E2,5E0,3.2E1,1.6E1,3.8E1,6E0,4.7E1,1E1,9.7E1,2.45E2,3.6E1,9.55E2,2.58E2,4E0,6.5E1,3.42E2,2.69E2,1.82E2,9.34E2,3.37E2,8.6E1,4.2E2,4.33E2,2.3E1,5.91E2,3.75E2,5.66E2,5.9E1,3.25E2,8.6E1,4E1,9E0,2.54E2,4E1,1.77E2,3.8E1,4.95E2,4.1E1,1.17E2,3.2E1],"tree_param":{"num_deleted":"0","num_feature":"15","num_nodes":"125","size_leaf_vector":"1"}},{"base_weights":[1.0883136E-3,-1.004114E-1,2.8779852E-1,-2.206906E-1,-2.8247198E-2,1.9512224E-1,4.7763872E-1,-3.1222653E-1,-1.7069927E-1,-8.240367E-2,3.765195E-2,1.6031522E-1,3.6791766E-1,3.995216E-1,6.4330995E-1,-8.937738E-2,-3.3563715E-1,-9.845627E-2,-2.4199447E-1,-1.4578055E-3,-1.2354368E-1,1.8756198E-2,2.1603128E-1,9.37109E-2,2.2004592E-1,3.2670683E-1,5.794253E-1,5.183859E-1,3.1764168E-1,8.063787E-1,5.308116E-1,-2.381602E-1,-6.302054E-2,-3.985061E-1,-2.545139E-1,-6.952016E-2,-2.5737688E-1,-2.7695608E-1,-1.4181842E-1,8.657649E-2,-1.2980546E-1,-1.6759059E-1,-5.0321482E-2,-7.890523E-3,9.274592E-2,1.9599749E-1,5.800558E-1,1.9802396E-1,7.143244E-2,3.1630522E-1,1.8464792E-1,3.0302137E-1,5.249516E-1,5.9902257E-1,8.7070465E-4,4.9575782E-1,4.9686655E-2,3.025403E-1,5.129689E-1,2.1584852E-1,8.306658E-1,5.108701E-1,5.223399E-2,1.16539006E-4,-1.2622192E-2,-2.1504879E-3,-1.1505592E-2,-2.7594063E-2,-1.880618E-2,-1.3504657E-2,3.206889E-5,-7.0040985E-3,7.027039E-4,-1.5938228E-2,-9.163667E-3,-1.6699841E-2,-1.1588103E-2,-8.352584E-3,1.7284356E-3,1.2738674E-3,7.980344E-3,-1.0997995E-2,-5.1284013E-3,-8.540083E-3,1.9861614E-2,-3.1383894E-3,1.3996921E-2,-1.0478011E-3,6.217276E-3,1.2086486E-2,2.3497425E-3,1.0675214E-2,-1.9294607E-3,3.222121E-2,1.3706041E-2,1.5227583E-2,3.490646E-3,1.8994022E-3,6.587071E-3,1.1975976E-2,2.3940125E-2,8.3527295E-3,1.3187594E-2,1.1868999E-2,1.9388448E-2,4.616992E-3,2.7494166E-2,1.8991057E-2,3.32559E-2,-4.6918155E-3,4.7571184E-3,2.1342158E-2,3.0420292E-2,2.1172643E-3,1.5601288E-2,2.7181698E-2,8.5035805E-3,-1.5743495E-3,2.0461095E-2,3.7274886E-2,4.7983248E-2,2.3041544E-2,3.5730373E-2],"categories":[],"categories_nodes":[],"categories_segments":[],"categories_sizes":[],"default_left":[0,0,0,0,0,0,0,0,0,0,0,0,0,0,0,0,0,0,0,0,0,0,0,0,0,0,0,0,0,0,0,0,0,0,0,0,0,0,0,0,0,0,0,0,0,0,0,0,0,0,0,0,0,0,0,0,0,0,0,0,0,0,0,0,0,0,0,0,0,0,0,0,0,0,0,0,0,0,0,0,0,0,0,0,0,0,0,0,0,0,0,0,0,0,0,0,0,0,0,0,0,0,0,0,0,0,0,0,0,0,0,0,0,0,0,0,0,0,0,0,0,0,0],"id":12,"left_children":[1,3,5,7,9,11,13,15,17,19,21,23,25,27,29,31,33,35,37,39,41,43,45,47,49,51,53,55,57,59,61,63,65,67,69,71,73,75,77,79,81,83,85,87,89,91,93,95,97,99,101,103,105,107,109,111,-1,113,115,117,119,121,-1,-1,-1,-1,-1,-1,-1,-1,-1,-1,-1,-1,-1,-1,-1,-1,-1,-1,-1,-1,-1,-1,-1,-1,-1,-1,-1,-1,-1,-1,-1,-1,-1,-1,-1,-1,-1,-1,-1,-1,-1,-1,-1,-1,-1,-1,-1,-1,-1,-1,-1,-1,-1,-1,-1,-1,-1,-1,-1,-1,-1],"loss_changes":[3.7787634E2,8.3233536E1,5.963736E1,1.6402023E1,2.1398449E1,1.3672104E1,1.4147171E1,6.5904236E0,1.1966721E1,1.0959227E1,9.113453E0,7.54615E0,3.1403656E0,7.222389E0,6.0844116E0,4.6340728E-1,5.753525E0,5.3072214E0,4.0619354E0,1.2553123E1,7.0289764E0,4.8251967E0,1.7751436E0,2.0797195E0,3.3557968E0,1.3528862E0,6.911011E-1,2.8202515E0,1.1780739E0,1.8716507E0,1.648983E0,6.241989E-2,3.411838E-1,2.0066757E0,2.0036354E0,5.7870736E0,7.513094E-1,2.157631E0,1.363275E0,2.9364529E0,1.0873604E0,2.5380821E0,3.392305E0,3.1125193E0,4.405517E0,1.0226336E0,7.935333E-2,2.1367064E0,1.4956415E0,3.2292805E0,9.788399E-1,1.521204E0,3.0515385E-1,6.021805E-1,3.571237E-2,2.0381851E0,0E0,1.0283127E0,2.3350716E-1,3.476819E-1,7.897339E-1,1.7810211E0,0E0,0E0,0E0,0E0,0E0,0E0,0E0,0E0,0E0,0E0,0E0,0E0,0E0,0E0,0E0,0E0,0E0,0E0,0E0,0E0,0E0,0E0,0E0,0E0,0E0,0E0,0E0,0E0,0E0,0E0,0E0,0E0,0E0,0E0,0E0,0E0,0E0,0E0,0E0,0E0,0E0,0E0,0E0,0E0,0E0,0E0,0E0,0E0,0E0,0E0,0E0,0E0,0E0,0E0,0E0,0E0,0E0,0E0,0E0,0E0,0E0],"parents":[2147483647,0,0,1,1,2,2,3,3,4,4,5,5,6,6,7,7,8,8,9,9,10,10,11,11,12,12,13,13,14,14,15,15,16,16,17,17,18,18,19,19,20,20,21,21,22,22,23,23,24,24,25,25,26,26,27,27,28,28,29,29,30,30,31,31,32,32,33,33,34,34,35,35,36,36,37,37,38,38,39,39,40,40,41,41,42,42,43,43,44,44,45,45,46,46,47,47,48,48,49,49,50,50,51,51,52,52,53,53,54,54,55,55,57,57,58,58,59,59,60,60,61,61],"right_children":[2,4,6,8,10,12,14,16,18,20,22,24,26,28,30,32,34,36,38,40,42,44,46,48,50,52,54,56,58,60,62,64,66,68,70,72,74,76,78,80,82,84,86,88,90,92,94,96,98,100,102,104,106,108,110,112,-1,114,116,118,120,122,-1,-1,-1,-1,-1,-1,-1,-1,-1,-1,-1,-1,-1,-1,-1,-1,-1,-1,-1,-1,-1,-1,-1,-1,-1,-1,-1,-1,-1,-1,-1,-1,-1,-1,-1,-1,-1,-1,-1,-1,-1,-1,-1,-1,-1,-1,-1,-1,-1,-1,-1,-1,-1,-1,-1,-1,-1,-1,-1,-1,-1],"split_conditions":[3.38609E-1,-6.160338E-1,1.3668388E0,-5.5771565E-1,2.9627162E-1,1.0037102E0,2.488544E0,-1.1493016E0,-2.136349E-1,-2.4927871E-1,1.0037102E0,1.1502589E0,4.9354267E0,1.6414568E-1,9.9900976E-2,-1.2285962E0,-9.1675895E-1,-4.3547156E-1,-4.298867E-1,-5.425461E-1,-1.6591983E-1,9.088929E-1,1.1934556E1,-2.8633344E-1,1.4241368E-2,2.004246E0,1.049295E0,1.1934556E1,3.6248546E0,2.004246E0,1.1934556E1,-4.195151E-1,-1.8058465E-1,-1.4117029E0,1.0037102E0,-8.4050184E-1,-7.18459E-1,-3.5695025E-1,4.646677E-1,-5.0321084E-1,-4.8874807E-1,1.1934556E1,1.1539146E0,1.1502589E0,-2.3583803E-1,1.3990717E0,-5.369555E-1,-4.4974816E-1,-9.062657E-2,9.088929E-1,1.6085242E0,9.088929E-1,-2.2457913E-1,-1.1207484E0,6.6898197E-1,1.4912056E0,4.9686655E-2,1.1502589E0,1.9545224E-1,2.1587317E-3,2.121793E0,3.7122207E0,5.223399E-2,1.16539006E-4,-1.2622192E-2,-2.1504879E-3,-1.1505592E-2,-2.7594063E-2,-1.880618E-2,-1.3504657E-2,3.206889E-5,-7.0040985E-3,7.027039E-4,-1.5938228E-2,-9.163667E-3,-1.6699841E-2,-1.1588103E-2,-8.352584E-3,1.7284356E-3,1.2738674E-3,7.980344E-3,-1.0997995E-2,-5.1284013E-3,-8.540083E-3,1.9861614E-2,-3.1383894E-3,1.3996921E-2,-1.0478011E-3,6.217276E-3,1.2086486E-2,2.3497425E-3,1.0675214E-2,-1.9294607E-3,3.222121E-2,1.3706041E-2,1.5227583E-2,3.490646E-3,1.8994022E-3,6.587071E-3,1.1975976E-2,2.3940125E-2,8.3527295E-3,1.3187594E-2,1.1868999E-2,1.9388448E-2,4.616992E-3,2.7494166E-2,1.8991057E-2,3.32559E-2,-4.6918155E-3,4.7571184E-3,2.1342158E-2,3.0420292E-2,2.1172643E-3,1.5601288E-2,2.7181698E-2,8.5035805E-3,-1.5743495E-3,2.0461095E-2,3.7274886E-2,4.7983248E-2,2.3041544E-2,3.5730373E-2],"split_indices":[13,13,13,6,6,8,13,12,10,10,8,6,8,12,12,13,9,12,9,12,9,5,7,10,12,6,12,7,8,6,7,10,9,6,8,9,13,12,9,9,13,7,9,6,10,12,14,12,10,5,9,5,9,12,2,9,0,6,10,4,9,6,0,0,0,0,0,0,0,0,0,0,0,0,0,0,0,0,0,0,0,0,0,0,0,0,0,0,0,0,0,0,0,0,0,0,0,0,0,0,0,0,0,0,0,0,0,0,0,0,0,0,0,0,0,0,0,0,0,0,0,0,0],"split_type":[0,0,0,0,0,0,0,0,0,0,0,0,0,0,0,0,0,0,0,0,0,0,0,0,0,0,0,0,0,0,0,0,0,0,0,0,0,0,0,0,0,0,0,0,0,0,0,0,0,0,0,0,0,0,0,0,0,0,0,0,0,0,0,0,0,0,0,0,0,0,0,0,0,0,0,0,0,0,0,0,0,0,0,0,0,0,0,0,0,0,0,0,0,0,0,0,0,0,0,0,0,0,0,0,0,0,0,0,0,0,0,0,0,0,0,0,0,0,0,0,0,0,0],"sum_hessian":[1.2983E4,9.589E3,3.394E3,3.595E3,5.994E3,2.282E3,1.112E3,1.268E3,2.327E3,3.29E3,2.704E3,1.901E3,3.81E2,7.58E2,3.54E2,1.21E2,1.147E3,1.157E3,1.17E3,1.109E3,2.181E3,2.446E3,2.58E2,9E2,1.001E3,3.21E2,6E1,3.07E2,4.51E2,1.42E2,2.12E2,1.7E1,1.04E2,6.44E2,5.03E2,9.8E2,1.77E2,8.66E2,3.04E2,6.58E2,4.51E2,1.361E3,8.2E2,1.799E3,6.47E2,2.46E2,1.2E1,1.57E2,7.43E2,2.67E2,7.34E2,2.89E2,3.2E1,5.8E1,2E0,2.95E2,1.2E1,4.21E2,3E1,6E0,1.36E2,2.06E2,6E0,1E0,1.6E1,9.4E1,1E1,7.9E1,5.65E2,4.74E2,2.9E1,5.31E2,4.49E2,9.5E1,8.2E1,3.8E2,4.86E2,2.66E2,3.8E1,3.59E2,2.99E2,1.03E2,3.48E2,1.354E3,7E0,7.91E2,2.9E1,1.638E3,1.61E2,1.51E2,4.96E2,2.29E2,1.7E1,9E0,3E0,8.5E1,7.2E1,4.79E2,2.64E2,1.83E2,8.4E1,6.03E2,1.31E2,1.65E2,1.24E2,2E0,3E1,1.5E1,4.3E1,1E0,1E0,1.86E2,1.09E2,1.5E1,4.06E2,2.7E1,3E0,3E0,3E0,8.6E1,5E1,1.68E2,3.8E1],"tree_param":{"num_deleted":"0","num_feature":"15","num_nodes":"123","size_leaf_vector":"1"}},{"base_weights":[-2.0887174E-3,-8.722176E-2,2.9677516E-1,-1.678367E-1,1.5360871E-2,2.3462495E-1,5.3692454E-1,-2.953248E-1,-1.2885241E-1,-2.6832374E-3,1.8936402E-1,2.1193315E-1,4.7713327E-1,6.758E-1,4.3261915E-1,-6.614425E-2,-3.1694457E-1,-6.065186E-2,-1.8532208E-1,8.171699E-2,-3.0815765E-2,2.0950384E-1,-7.9437226E-2,1.4244427E-1,2.809577E-1,4.1232297E-1,7.8476226E-1,5.901544E-1,9.247288E-1,3.8893622E-1,7.0525426E-1,-3.2011616E-1,-4.6897285E-2,-3.9521685E-1,-2.775145E-1,-2.6440581E-2,-1.9279733E-1,-2.3739253E-1,-1.4496034E-1,1.7416115E-1,-4.2513426E-2,-9.1079E-2,1.6199127E-2,1.9674736E-1,4.489072E-1,-1.646186E-1,6.2053043E-2,1.2703402E-1,3.7425146E-1,3.7249923E-1,2.2265561E-1,4.313495E-1,1.08468145E-1,8.428153E-1,-7.670689E-2,5.148228E-1,7.499673E-1,9.3409526E-1,8.600235E-3,3.2923305E-1,4.7671276E-1,6.207676E-1,5.14485E-2,1.1380768E-2,-2.1544E-2,-3.4373836E-3,4.7307494E-3,-2.4235627E-2,-1.8010123E-2,-1.4299293E-2,-5.2095926E-4,-5.915897E-3,1.1678013E-3,-1.2132134E-2,-5.213263E-3,-1.2530989E-2,9.2450477E-4,-2.6090296E-3,-8.594471E-3,5.908704E-3,1.2141458E-2,-5.0785053E-3,4.784454E-4,-7.0728213E-3,-2.6835136E-3,-6.253316E-4,3.407723E-3,1.3346307E-2,7.597697E-3,2.5606904E-2,4.187846E-3,-1.4976925E-2,-3.0476889E-3,-4.7242804E-3,5.1404666E-3,1.3503875E-2,5.765692E-3,2.0198902E-2,5.597615E-3,1.0245481E-2,2.056863E-2,8.048896E-3,1.2735747E-2,1.7799925E-2,2.5010213E-2,-2.0182133E-3,7.3013464E-3,3.5590888E-3,4.3308184E-2,-8.685351E-4,-4.8844814E-3,4.6855006E-3,2.81789E-2,7.037163E-4,3.8120624E-2,4.2576093E-2,6.035955E-2,1.50155295E-2,2.0590223E-2,2.200257E-2,3.222886E-2,8.817744E-3,3.1391088E-2],"categories":[],"categories_nodes":[],"categories_segments":[],"categories_sizes":[],"default_left":[0,0,0,0,0,0,0,0,0,0,0,0,0,0,0,0,0,0,0,0,0,0,0,0,0,0,0,0,0,0,0,0,0,0,0,0,0,0,0,0,0,0,0,0,0,0,0,0,0,0,0,0,0,0,0,0,0,0,0,0,0,0,0,0,0,0,0,0,0,0,0,0,0,0,0,0,0,0,0,0,0,0,0,0,0,0,0,0,0,0,0,0,0,0,0,0,0,0,0,0,0,0,0,0,0,0,0,0,0,0,0,0,0,0,0,0,0,0,0,0,0,0,0],"id":13,"left_children":[1,3,5,7,9,11,13,15,17,19,21,23,25,27,29,31,33,35,37,39,41,43,45,47,49,51,53,55,57,59,61,63,65,67,69,71,73,75,77,79,81,83,85,87,89,91,93,95,97,99,101,103,105,107,109,111,113,115,-1,117,119,121,-1,-1,-1,-1,-1,-1,-1,-1,-1,-1,-1,-1,-1,-1,-1,-1,-1,-1,-1,-1,-1,-1,-1,-1,-1,-1,-1,-1,-1,-1,-1,-1,-1,-1,-1,-1,-1,-1,-1,-1,-1,-1,-1,-1,-1,-1,-1,-1,-1,-1,-1,-1,-1,-1,-1,-1,-1,-1,-1,-1,-1],"loss_changes":[3.3200864E2,8.398956E1,4.305301E1,2.8226517E1,1.40351095E1,1.2555672E1,8.311996E0,6.5738983E0,1.6768707E1,9.62118E0,2.2903585E0,1.005648E1,3.584179E0,4.8481445E0,3.7987518E0,5.5201733E-1,3.643242E0,8.923612E0,4.9738235E0,1.1641079E1,8.611781E0,1.1057701E0,3.7178516E-1,3.7068443E0,5.547661E0,9.013481E-1,1.7150097E0,1.9133453E0,2.8350067E-1,1.3994865E0,